svm_type c_svc
kernel_type rbf
gamma 4
nr_class 2
total_sv 3370
rho -0.415715
label -1 1
nr_sv 2000 1370
SV
2.300278741338336 6:1 11:-0.735422 12:0.172119 13:0.006998 14:-0.002932 15:0.000259 16:-0.022931 17:0.006008 18:-0.029001 19:-0.01403 20:0.013488 21:-0.026811 22:0.012247 
16 6:1 11:-0.733319 12:0.173187 13:0.006145 14:0.01964 15:0.01521 16:-0.007576 17:0.021809 18:-0.0356 19:-0.020209 20:0.02076 21:-0.017162 22:-0.009357 
16 4:1 11:-0.735861 12:0.172516 13:-0.011625 14:-0.004904 15:0.007924 16:-0.00419 17:0.006779 18:-0.04525 19:0.010931 20:-0.017184 21:0.0021 22:0.020611 
16 9:1 11:-0.737617 12:0.173706 13:-0.04525 14:0.010931 15:-0.017184 16:0.0021 17:0.020611 18:-0.039543 19:0.009583 20:0.021821 21:0.010547 22:0.020968 
2.107838520933874 6:1 11:-0.735104 12:0.173553 13:0.003162 14:0.009431 15:-0.000589 16:-0.000218 17:0.003277 18:-0.027465 19:0.007015 20:0.020105 21:-0.028115 22:0.001819 
16 8:1 11:-0.735675 12:0.17279 13:0.025697 14:-0.002135 15:0.01114 16:-0.013804 17:-0.017397 18:-0.017524 19:-0.021498 20:0.010563 21:0.014542 22:0.014983 
5.370019372524742 9:1 11:-0.737014 12:0.174225 13:-0.019116 14:0.014809 15:-0.011205 16:-0.007287 17:0.016685 18:-0.041831 19:0.014675 20:-0.007596 21:0.007621 22:0.017599 
3.984550717994336 1:1 11:-0.736475 12:0.174744 13:-0.011205 14:-0.007287 15:0.016685 16:-0.041831 17:0.014675 18:-0.007596 19:0.007621 20:0.017599 21:-0.00519 22:0.025036 
16 7:1 11:-0.734227 12:0.173706 13:0.007621 14:0.017599 15:-0.00519 16:0.025036 17:-0.000502 18:-0.014829 19:0.020299 20:0.000841 21:0.013941 22:-0.000425 
16 9:1 11:-0.734077 12:0.173706 13:-0.029379 14:0.0203 15:-0.000549 16:-0.011927 17:0.025848 18:-0.043231 19:-0.000903 20:0.004431 21:0.014007 22:0.002986 
5.826919182022444 8:1 11:-0.731162 12:0.171356 13:0.00441 14:-0.014979 15:0.017531 16:0.00434 17:-0.007728 18:-0.011514 19:-0.006822 20:-0.004114 21:0.011215 22:0.00393 
16 4:1 11:-0.733018 12:0.171478 13:-0.006822 14:-0.004114 15:0.011215 16:0.00393 17:0.012444 18:-0.041467 19:0.016824 20:-0.003711 21:-0.004396 22:0.010137 
15.12212979808143 9:1 11:-0.734331 12:0.172516 13:-0.0048 14:0.027769 15:0.002614 16:-0.002479 17:-0.002898 18:-0.046019 19:-0.003152 20:0.0064 21:0.012831 22:0.005544 
16 6:1 11:-0.736271 12:0.173553 13:0.0064 14:0.012831 15:0.005544 16:-0.029716 17:0.016083 18:-0.03365 19:-0.006526 20:0.016916 21:-0.009219 22:-0.008668 
0.9491882512904255 7:1 11:-0.73564 12:0.173706 13:0.007207 14:0.019294 15:-0.037102 16:0.022586 17:0.008742 18:-0.008118 19:0.00894 20:-0.005708 21:0.018782 22:0.01961 
16 9:1 11:-0.732639 12:0.172272 13:-0.030409 14:0.024331 15:-0.008695 16:-0.000703 17:0.021068 18:-0.048779 19:0.009605 20:0.012654 21:0.016666 22:0.006021 
16 10:1 11:-0.733596 12:0.172913 13:0.009862 14:0.002323 15:-0.012903 16:0.010982 17:-0.012016 18:-0.022597 19:0.007261 20:-0.004559 21:0.001223 22:-0.004674 
14.34955396040887 10:1 11:-0.743658 12:0.176697 13:0.03488 14:0.014671 15:0.030835 16:0.025971 17:-0.104256 18:-0.028515 19:0.022239 20:0.023832 21:0.023646 22:-0.027767 
7.772973621459407 7:1 11:-0.73338 12:0.1763 13:-0.0034 14:0.048642 15:-0.009771 16:0.039203 17:-1.8e-05 18:-0.011069 19:0.031446 20:-0.01078 21:0.016943 22:0.036748 
1.119630485682998 9:1 11:-0.74276 12:0.174072 13:-0.023451 14:0.040052 15:0.02581 16:-0.015835 17:-0.074789 18:-0.043122 19:0.031521 20:0.017743 21:0.02045 22:0.038611 
1.994988209605555 7:1 11:-0.737153 12:0.176422 13:0.02707 14:0.039027 15:0.010581 16:-0.069096 17:-0.013109 18:0.01044 19:0.037658 20:0.02385 21:0.028092 22:0.001184 
14.04908109097013 3:1 11:-0.723258 12:0.173553 13:0.028215 14:0.010353 15:0.021975 16:0.035591 17:0.033738 18:0.005421 19:-0.005187 20:0.024762 21:-0.004156 22:-0.011792 
3.764410572127668 5:1 11:-0.726452 12:0.167175 13:0.002569 14:-0.019858 15:-0.015921 16:0.012605 17:-0.094376 18:-0.019793 19:-0.019853 20:-0.066156 21:0.000327 22:-0.004712 
16 8:1 11:-0.738006 12:0.173828 13:0.030495 14:-0.030591 15:0.026112 16:0.005474 17:-0.000484 18:-0.014235 19:0.002108 20:0.040228 21:0.03044 22:0.005489 
16 5:1 11:-0.736284 12:0.172516 13:0.005734 14:0.002738 15:0.014594 16:0.011848 17:-0.092395 18:-0.011802 19:0.014321 20:0.027301 21:-0.006426 22:-0.015197 
1.423450962953152 8:1 11:-0.73363 12:0.173187 13:0.011848 14:-0.092395 15:-0.011802 16:0.014321 17:0.027301 18:-0.006426 19:-0.015197 20:0.00976 21:-0.067865 22:0.000963 
5.98574685152052 4:1 11:-0.737845 12:0.172516 13:-0.005061 14:0.01862 15:0.013779 16:-0.003374 17:-0.067024 18:-0.043429 19:0.029683 20:0.000163 21:0.023664 22:0.054046 
11.29580221588912 7:1 11:-0.731994 12:0.169251 13:0.025949 14:0.012387 15:-0.041581 16:0.014498 17:-0.084214 18:-0.044315 19:0.027941 20:-0.001956 21:-0.002607 22:-0.008024 
0.05992339273632211 7:1 11:-0.734123 12:0.177856 13:0.046397 14:0.022984 15:0.012289 16:0.032593 17:0.023269 18:0.010819 19:0.036059 20:0.024264 21:0.036784 22:0.017208 
14.48896182125548 2:1 11:-0.737095 12:0.175659 13:-0.080971 14:-0.006906 15:0.010414 16:0.017579 17:0.018826 18:-0.011261 19:0.033085 20:-0.014783 21:0.031362 22:0.008868 
8.475614868347042 10:1 11:-0.730543 12:0.174866 13:0.031362 14:0.008868 15:0.037663 16:0.010761 17:-0.007273 18:-0.012421 19:0.007167 20:-0.01226 21:0.027423 22:-0.025013 
11.87297952503621 2:1 11:-0.73092 12:0.174072 13:0.037663 14:0.010761 15:-0.007273 16:-0.012421 17:0.007167 18:-0.01226 19:0.027423 20:-0.025013 21:0.026499 22:-0.000919 
1.293065804168932 6:1 11:-0.726665 12:0.171081 13:0.016696 14:0.008254 15:0.016286 16:-0.03464 17:0.0299 18:-0.018259 19:0.00114 20:-0.052673 21:-0.101383 22:-0.006974 
16 8:1 11:-0.73046 12:0.170685 13:0.016286 14:-0.03464 15:0.0299 16:-0.018259 17:0.00114 18:-0.052673 19:-0.101383 20:-0.006974 21:0.025206 22:-0.002938 
11.52093190722272 4:1 11:-0.739522 12:0.173828 13:-0.101383 14:-0.006974 15:0.025206 16:-0.002938 17:0.015558 18:-0.049396 19:0.026324 20:0.008788 21:-0.0043 22:-0.052107 
8.218634157164377 3:1 11:-0.729166 12:0.17279 13:0.013879 14:-0.005037 15:0.023594 16:0.010039 17:0.012464 18:-0.007757 19:-0.086675 20:0.015946 21:0.045624 22:-0.00061 
2.34930248928738 9:1 11:-0.740775 12:0.170685 13:-0.086675 14:0.015946 15:0.045624 16:-0.00061 17:-0.073567 18:-0.054489 19:-0.05997 20:-0.000165 21:0.015384 22:-0.046143 
3.71798990835178 5:1 11:-0.752028 12:0.164307 13:0.040205 14:-0.011481 15:-0.069662 16:0.015721 17:-0.02266 18:-0.017021 19:-0.085556 20:-0.005155 21:0.00654 22:-0.096486 
14.83413239831731 1:1 11:-0.765398 12:0.171875 13:0.02465 14:0.011724 15:0.027934 16:0.005307 17:0.017107 18:-0.02223 19:-0.082231 20:0.008607 21:0.005579 22:0.028038 
16 2:1 11:-0.712137 12:0.169128 13:-0.017971 14:0.0046 15:-0.027664 16:-0.001525 17:-0.015515 18:-0.044431 19:-0.013613 20:-0.023324 21:-0.00801 22:-0.011798 
16 10:1 11:-0.716915 12:0.169525 13:0.022264 14:-0.011318 15:-0.013997 16:-0.005158 17:-0.098289 18:-0.035855 19:0.00811 20:0.002723 21:0.010151 22:-0.025598 
7.776338858817076 3:1 11:-0.730125 12:0.176575 13:-0.048895 14:-0.004055 15:0.009762 16:-0.011325 17:-0.073008 18:-0.01278 19:-0.003201 20:0.039752 21:0.016684 22:0.008115 
15.88446568280869 4:1 11:-0.722497 12:0.1763 13:-0.020039 14:0.022289 15:0.022083 16:0.017689 17:0.011428 18:-0.033357 19:0.029853 20:0.005316 21:0.023892 22:0.055857 
16 7:1 11:-0.719331 12:0.174744 13:0.00454 14:-0.065864 15:-0.019858 16:0.036534 17:0.010319 18:-0.024248 19:0.033368 20:-0.00826 21:0.01695 22:0.001185 
0.006299837798108428 4:1 11:-0.715748 12:0.173706 13:-0.00826 14:0.01695 15:0.001185 16:0.009769 17:0.040368 18:-0.042705 19:-0.065342 20:-0.022199 21:0.011638 22:0.024293 
2.258010181503442 5:1 11:-0.749125 12:0.17096 13:-0.013352 14:0.026486 15:0.003808 16:0.014648 17:0.006991 18:0.006114 19:-0.00816 20:-0.001916 21:0.009243 22:-0.016356 
1.365027532483432 9:1 11:-0.459275 12:0.196137 13:0.07906 14:0.076355 15:0.037464 16:0.035722 17:0.03506 18:0.003094 19:0.062574 20:0.026456 21:-0.075989 22:0.022414 
1.183503899505937 6:1 11:-0.398689 12:0.167053 13:0.030443 14:0.038053 15:0.017968 16:0.004308 17:-0.074579 18:-0.049551 19:-0.062922 20:0.036913 21:0.086392 22:-0.015029 
16 6:1 11:-0.337725 12:0.142395 13:-0.016885 14:-0.071717 15:-0.000809 16:0.034113 17:0.017202 18:-0.045522 19:-0.095374 20:0.000191 21:0.048672 22:-0.009178 
16 4:1 11:-0.344654 12:0.137176 13:0.038969 14:-0.05203 15:-0.074964 16:-0.010788 17:-0.025544 18:-0.059139 19:-0.028834 20:-0.050572 21:-0.076426 22:-0.018879 
2.368803130680094 1:1 11:-0.370874 12:0.137695 13:-0.023748 14:-0.003547 15:-0.021891 16:-0.12124 17:-0.122909 18:-0.02193 19:0.015625 20:-0.026191 21:0.009425 22:0.021869 
2.217391332957732 10:1 11:-0.390164 12:0.140045 13:0.00244 14:-0.037742 15:-0.039816 16:-0.122 17:-0.103889 18:-0.033801 19:0.001645 20:0.00585 21:-0.016872 22:0.000659 
16 7:1 11:-0.395651 12:0.140045 13:0.00585 14:-0.016872 15:0.000659 16:-0.015663 17:-0.089246 18:-0.052987 19:0.027647 20:0.033784 21:-0.019675 22:-0.008967 
16 10:1 11:-0.397939 12:0.142517 13:0.013162 14:-0.020353 15:-0.016796 16:-0.003441 17:0.000928 18:-0.043705 19:-0.001101 20:0.006569 21:-0.01429 22:0.002021 
16 9:1 11:-0.356407 12:0.141357 13:0.022446 14:0.021136 15:-0.032522 16:-0.08229 17:-0.004408 18:-0.049958 19:-0.098553 20:-0.043071 21:0.005853 22:-0.097388 
16 3:1 11:-0.363695 12:0.141357 13:-0.004408 14:-0.049958 15:-0.098553 16:-0.043071 17:0.005853 18:-0.097388 19:-0.064225 20:-0.062365 21:0.000804 22:0.015108 
13.77988670370082 4:1 11:-0.365718 12:0.14148 13:-0.049958 14:-0.098553 15:-0.043071 16:0.005853 17:-0.097388 18:-0.064225 19:-0.062365 20:0.000804 21:0.015108 22:0.020438 
16 5:1 11:-0.36769 12:0.14148 13:-0.098553 14:-0.043071 15:0.005853 16:-0.097388 17:-0.064225 18:-0.062365 19:0.000804 20:0.015108 21:0.020438 22:0.026485 
16 6:1 11:-0.370726 12:0.142914 13:-0.025338 14:-0.005894 15:-0.018367 16:-0.008694 17:-0.007698 18:-0.067786 19:-0.105262 20:-0.016825 21:0.023586 22:-0.031338 
8.012404533303906 9:1 11:-0.378884 12:0.14212 13:-0.001509 14:-0.007647 15:-0.021125 16:-0.00346 17:-0.014917 18:-0.022001 19:-0.011738 20:-0.013519 21:-0.012032 22:-0.058375 
16 1:1 11:-0.389994 12:0.143036 13:-0.016274 14:-0.034193 15:-0.011123 16:-0.01492 17:-0.038285 18:-0.036747 19:-0.00019 20:-0.007298 21:0.017639 22:0.001306 
16 2:1 11:-0.405243 12:0.146698 13:0.007889 14:-0.004337 15:0.021326 16:0.001769 17:-0.000333 18:-0.014511 19:-0.016164 20:0.018356 21:0.022484 22:-0.021758 
16 6:1 11:-0.368975 12:0.152832 13:0.031493 14:0.047675 15:0.016901 16:0.008598 17:-0.063593 18:-0.044534 19:-0.068851 20:0.026033 21:0.087445 22:-0.004153 
14.16218652931265 7:1 11:-0.35783 12:0.147613 13:0.041214 14:0.007778 15:0.030307 16:-0.006511 17:-0.081935 18:-0.037659 19:0.028942 20:0.067704 21:-0.001907 22:0.007277 
16 1:1 11:-0.347576 12:0.144226 13:-0.031664 14:-0.092824 15:0.006055 16:0.060398 17:-0.038011 18:-0.057472 19:0.012914 20:0.001269 21:0.020116 22:0.016157 
16 10:1 11:-0.338327 12:0.137573 13:0.031663 14:-0.004935 15:-0.01522 16:-0.015641 17:-0.020175 18:-0.082793 19:-0.056899 20:-0.086402 21:-0.021028 22:0.032676 
16 1:1 11:-0.340048 12:0.137573 13:-0.004935 14:-0.01522 15:-0.015641 16:-0.020175 17:-0.082793 18:-0.056899 19:-0.086402 20:-0.021028 21:0.032676 22:0.01305 
3.599180570380449 1:1 11:-0.349289 12:0.13678 13:-0.044177 14:-0.045192 15:-0.009357 16:-0.014434 17:-0.092556 18:-0.035432 19:0.013224 20:-0.024108 21:-0.00403 22:0.001642 
1.413723557999097 3:1 11:-0.35953 12:0.142273 13:0.011067 14:0.032891 15:-0.016437 16:-0.009092 17:-0.008943 18:-0.03592 19:0.03483 20:0.025663 21:-0.043779 22:-0.09567 
16 1:1 11:-0.363283 12:0.143707 13:-0.043779 14:-0.09567 15:-0.004434 16:0.058167 17:-0.042325 18:-0.05242 19:0.019526 20:-0.00359 21:-0.012805 22:-0.066228 
16 3:1 11:-0.369699 12:0.143829 13:0.016549 14:0.01139 15:-0.013719 16:-0.024669 17:-0.08492 18:-0.04337 19:0.034485 20:0.037172 21:-0.015396 22:-0.036628 
16 3:1 11:-0.368729 12:0.144867 13:-0.003278 14:0.051878 15:-0.010461 16:-0.004337 17:0.013891 18:-0.036869 19:0.018845 20:0.010805 21:-0.001176 22:-0.013392 
10.78965628759287 9:1 11:-0.372757 12:0.147217 13:-0.108062 14:0.024853 15:0.021726 16:0.006555 17:0.011185 18:-0.01331 19:0.012741 20:0.010276 21:0.017081 22:-0.014406 
16 6:1 11:-0.375604 12:0.148926 13:0.014727 14:0.030443 15:0.006933 16:0.007886 17:-0.064869 18:-0.041115 19:-0.068665 20:0.027695 21:0.057219 22:0.004905 
3.216384498201618 4:1 11:-0.36465 12:0.147736 13:0.035589 14:0.017368 15:0.01853 16:0.025014 17:-0.004329 18:-0.017863 19:-0.055507 20:-0.007885 21:0.019179 22:0.043327 
16 5:1 11:-0.355574 12:0.144623 13:0.016384 14:0.006369 15:0.023691 16:-0.006917 17:0.011412 18:-0.026164 19:-0.075236 20:-0.028378 21:0.051231 22:0.045503 
5.847738752977145 7:1 11:-0.341546 12:0.137299 13:0.008888 14:-0.008751 15:0.023039 16:0.029381 17:-0.018086 18:-0.047149 19:-0.058465 20:-0.062487 21:-0.127536 22:-0.045608 
16 9:1 11:-0.34523 12:0.137299 13:0.023039 14:0.029381 15:-0.018086 16:-0.047149 17:-0.058465 18:-0.062487 19:-0.127536 20:-0.045608 21:0.022592 22:-0.005959 
16 6:1 11:-0.356957 12:0.137054 13:-0.045608 14:0.022592 15:-0.005959 16:-0.031332 17:-0.114741 18:-0.077632 19:-0.032224 20:0.001141 21:0.031276 22:-0.057305 
16 7:1 11:-0.383862 12:0.139252 13:-0.02794 14:0.006923 15:0.013963 16:-0.01889 17:-0.101386 18:-0.067113 19:-0.000405 20:-0.00074 21:-0.009056 22:-0.036673 
4.696708968461185 9:1 11:-0.383899 12:0.139252 13:0.013963 14:-0.01889 15:-0.101386 16:-0.067113 17:-0.000405 18:-0.00074 19:-0.009056 20:-0.036673 21:-0.084275 22:-0.030279 
16 9:1 11:-0.41777 12:0.15921 13:0.036614 14:0.039002 15:0.006625 16:0.006994 17:0.013916 18:-0.02818 19:0.02104 20:0.024074 21:0.03676 22:-0.01791 
16 6:1 11:-0.341218 12:0.144745 13:0.007313 14:0.039136 15:0.006919 16:0.024817 17:0.026664 18:-0.047201 19:-0.08109 20:0.020654 21:0.047372 22:-0.001147 
2.418535594682569 10:1 11:-0.335525 12:0.142395 13:0.029687 14:-0.004492 15:-0.005982 16:0.011963 17:0.037639 18:-0.056986 19:-0.072056 20:0.013625 21:0.005999 22:0.026441 
16 10:1 11:-0.342079 12:0.137573 13:0.030303 14:-0.015924 15:-0.028689 16:-0.037884 17:-0.02229 18:-0.071196 19:-0.02864 20:0.014133 21:-0.001083 22:-0.003209 
16 6:1 11:-0.357926 12:0.136139 13:-0.022906 14:-0.003581 15:-0.024776 16:-0.001886 17:-0.002778 18:-0.036055 19:-0.031264 20:0.008588 21:0.020062 22:-0.039429 
16 7:1 11:-0.376896 12:0.137817 13:-0.003887 14:-0.004729 15:0.022626 16:-0.033274 17:-0.097555 18:-0.065133 19:0.002385 20:0.013986 21:-0.043079 22:-0.010546 
15.56668413593935 10:1 11:-0.377755 12:0.137817 13:-0.033274 14:-0.097555 15:-0.065133 16:0.002385 17:0.013986 18:-0.043079 19:-0.010546 20:0.006715 21:-0.012646 22:-0.009651 
16 8:1 11:-0.382174 12:0.139252 13:-0.012646 14:-0.009651 15:0.009965 16:-0.006788 17:-0.046888 18:-0.067259 19:0.001007 20:-0.105715 21:-0.055567 22:0.021471 
16 1:1 11:-0.387388 12:0.139404 13:-0.006788 14:-0.046888 15:-0.067259 16:0.001007 17:-0.105715 18:-0.055567 19:0.021471 20:-0.013284 21:0.003018 22:0.000685 
10.63342722436208 6:1 11:-0.352818 12:0.146179 13:0.000888 14:-0.006229 15:-0.086738 16:-0.006547 17:-0.055021 18:-0.019703 19:0.007019 20:0.026924 21:0.046384 22:-0.012914 
16 6:1 11:-0.341354 12:0.140442 13:-0.016783 14:-0.008186 15:-0.077093 16:0.019452 17:0.022144 18:-0.039545 19:-0.076617 20:0.012237 21:0.057557 22:-0.012268 
16 10:1 11:-0.338053 12:0.145783 13:0.031402 14:-0.014126 15:-0.086115 16:0.010082 17:0.065895 18:-0.055963 19:-0.074039 20:0.009834 21:0.025389 22:0.048453 
10.13829191188459 10:1 11:-0.348956 12:0.145386 13:0.04509 14:-0.015685 15:0.00032 16:0.013519 17:-0.074556 18:-0.058351 19:-0.049069 20:0.01873 21:0.021137 22:0.028224 
16 10:1 11:-0.345536 12:0.138092 13:0.035994 14:-0.002497 15:-0.003196 16:0.016622 17:0.0295 18:-0.073278 19:-0.072302 20:-0.014035 21:0.004763 22:0.020514 
16 1:1 11:-0.347749 12:0.138092 13:-0.002497 14:-0.003196 15:0.016622 16:0.0295 17:-0.073278 18:-0.072302 19:-0.014035 20:0.004763 21:0.020514 22:0.00781 
12.72750128995944 7:1 11:-0.361754 12:0.140045 13:0.003418 14:-0.011093 15:0.016719 16:0.016013 17:-0.02796 18:-0.050532 19:-0.040103 20:0.020279 21:-0.025483 22:-0.011503 
16 8:1 11:-0.363011 12:0.140045 13:-0.011093 14:0.016719 15:0.016013 16:-0.02796 17:-0.050532 18:-0.040103 19:0.020279 20:-0.025483 21:-0.011503 22:0.001307 
16 5:1 11:-0.388685 12:0.144989 13:-0.003268 14:-0.006127 15:0.001999 16:-0.011082 17:0.009846 18:-0.044753 19:-0.097199 20:-0.054197 21:0.012122 22:0.032562 
16 7:1 11:-0.393656 12:0.144989 13:0.001999 14:-0.011082 15:0.009846 16:-0.044753 17:-0.097199 18:-0.054197 19:0.012122 20:0.032562 21:-0.019425 22:-0.005129 
16 1:1 11:-0.399017 12:0.145538 13:-0.021046 14:-0.027119 15:-0.007199 16:0.010186 17:-0.035506 18:-0.036506 19:0.020489 20:-0.000625 21:0.005762 22:0.007132 
3.064892108642114 2:1 11:-0.355616 12:0.14682 13:0.000242 14:0.001386 15:-0.054324 16:-0.037667 17:-0.050611 18:0.00605 19:0.020352 20:0.041649 21:0.033581 22:-0.01418 
14.18656919415688 1:1 11:-0.336983 12:0.142273 13:0.008414 14:0.001392 15:0.005055 16:0.014175 17:-0.08987 18:-0.015932 19:0.038409 20:0.010576 21:0.027925 22:0.028046 
9.185017698292075 6:1 11:-0.332067 12:0.143036 13:0.007546 14:0.033894 15:0.012013 16:0.022568 17:0.02899 18:-0.041306 19:-0.086707 20:0.013359 21:0.049287 22:0.000953 
1.862200196235585 4:1 11:-0.32316 12:0.141357 13:0.056166 14:-0.01366 15:0.001573 16:0.018071 17:-0.007192 18:0.009449 19:0.030402 20:-0.045439 21:-0.084189 22:0.010227 
16 6:1 11:-0.323603 12:0.141357 13:0.001573 14:0.018071 15:-0.007192 16:0.009449 17:0.030402 18:-0.045439 19:-0.084189 20:0.010227 21:0.052175 22:-0.017001 
11.59121453305834 6:1 11:-0.325373 12:0.140839 13:-0.006646 14:0.02533 15:0.016087 16:0.002653 17:-0.070569 18:-0.020596 19:0.002037 20:0.000625 21:0.019546 22:-0.001625 
15.8587458872279 1:1 11:-0.334042 12:0.141602 13:0.008768 14:0.015612 15:0.026699 16:0.061299 17:-0.013406 18:-0.034534 19:-0.06995 20:-0.002703 21:0.049417 22:0.044652 
16 10:1 11:-0.332505 12:0.143311 13:0.044652 14:0.004345 15:-0.012962 16:0.010604 17:0.056425 18:-0.028761 19:0.003005 20:0.035986 21:0.005956 22:0.028712 
16 6:1 11:-0.327034 12:0.141235 13:0.005361 14:0.028606 15:0.010251 16:-0.003575 17:-0.083627 18:-0.025291 19:0.001525 20:0.00831 21:0.021406 22:-0.00166 
16 6:1 11:-0.327854 12:0.139526 13:-0.001071 14:0.035998 15:0.019685 16:0.025627 17:0.007342 18:-0.029043 19:-0.022702 20:0.008304 21:0.043647 22:-0.00976 
16 6:1 11:-0.322011 12:0.138489 13:-0.006151 14:0.023476 15:0.011727 16:0.017216 17:0.017952 18:-0.029548 19:-0.012032 20:0.01368 21:-0.065141 22:-0.029995 
16 6:1 11:-0.331955 12:0.136017 13:-0.002464 14:0.018537 15:-0.004955 16:-0.013603 17:-0.069742 18:-0.027754 19:0.00097 20:0.028392 21:0.048419 22:-0.054662 
16 3:1 11:-0.341932 12:0.136658 13:0.016561 14:0.033044 15:-0.059268 16:-0.097868 17:-0.04611 18:-0.064734 19:-0.005027 20:0.02064 21:-0.012217 22:-0.018805 
16 6:1 11:-0.345278 12:0.138214 13:-0.006432 14:0.001689 15:-0.029892 16:-0.009316 17:-0.010014 18:-0.038566 19:-0.027749 20:-0.002691 21:0.026272 22:-0.043562 
16 7:1 11:-0.356486 12:0.13797 13:0.005083 14:-0.042109 15:-0.091912 16:-0.033688 17:-0.075821 18:-0.058463 19:-0.005563 20:0.029729 21:-0.057592 22:-0.088978 
5.024088196658746 5:1 11:-0.142181 12:0.260162 13:0.032176 14:0.108134 15:0.115105 16:0.039587 17:-0.120595 18:0.057403 19:-0.011728 20:-0.039614 21:-0.063676 22:0.208234 
4.720640000812489 7:1 11:-0.143378 12:0.258972 13:0.115105 14:0.039587 15:-0.120595 16:0.057403 17:-0.011728 18:-0.039614 19:-0.063676 20:0.208234 21:0.105213 22:0.08493 
13.52810098521176 1:1 11:-0.031433 12:0.215179 13:0.071488 14:-0.071823 15:0.11297 16:0.143553 17:-0.137218 18:-0.023309 19:0.033223 20:0.043659 21:0.135387 22:0.055857 
16 6:1 11:0.007731 12:0.192993 13:0.004813 14:0.048646 15:0.013392 16:0.085364 17:0.044346 18:0.035502 19:-0.132819 20:0.116969 21:0.162968 22:-0.02574 
16 6:1 11:0.010278 12:0.191162 13:0.019852 14:0.049795 15:0.005221 16:0.020248 17:-0.093373 18:0.023076 19:-0.085659 20:0.097029 21:0.177211 22:-0.004695 
16 1:1 11:0.014638 12:0.187378 13:0.074744 14:-0.113436 15:0.11657 16:0.089217 17:-0.162115 18:-0.04654 19:0.019402 20:0.014896 21:0.074159 22:0.03808 
16 6:1 11:0.028244 12:0.179291 13:-0.040738 14:0.039254 15:-0.002288 16:0.001126 17:-0.083918 18:0.025536 19:-0.10352 20:0.094477 21:0.099761 22:-0.039861 
5.677088794617712 1:1 11:0.029635 12:0.178131 13:0.037924 14:-0.123137 15:0.086501 16:0.107141 17:-0.057164 18:-0.095554 19:-0.027297 20:-0.041415 21:0.033448 22:0.038381 
16 1:1 11:0.027286 12:0.178131 13:0.063472 14:-0.124739 15:0.052279 16:0.067588 17:-0.145321 18:-0.03727 19:0.039076 20:0.006287 21:0.036841 22:0.031565 
16 6:1 11:0.028509 12:0.178131 13:-0.03727 14:0.039076 15:0.006287 16:0.036841 17:0.031565 18:-0.050954 19:-0.164458 20:0.035065 21:0.11119 22:-0.009265 
5.328569007809245 4:1 11:0.025002 12:0.175262 13:0.11119 14:-0.009265 15:-0.035576 16:-0.010191 17:-0.088333 18:-0.018721 19:0.049535 20:0.047289 21:-0.09134 22:0.033371 
4.113105204849557 1:1 11:0.021641 12:0.175385 13:0.043413 14:-0.152516 15:-0.058362 16:0.131452 17:-0.009387 18:-0.047048 19:0.026625 20:0.018182 21:0.046721 22:-0.057782 
16 7:1 11:0.018578 12:0.175385 13:0.026625 14:0.018182 15:0.046721 16:-0.057782 17:0.006386 18:-0.196454 19:-0.061039 20:0.120676 21:-0.019375 22:-0.031941 
16 6:1 11:0.022098 12:0.175781 13:-0.03692 14:0.021404 15:-0.013316 16:0.064773 17:0.0304 18:0.042991 19:-0.143289 20:0.082943 21:0.12499 22:-0.027743 
16 2:1 11:0.015536 12:0.154785 13:-0.166295 14:0.047647 15:0.093947 16:-0.014428 17:-0.051602 18:-0.044537 19:-0.101087 20:-0.018765 21:0.05377 22:0.049834 
15.75451864714244 4:1 11:0.013174 12:0.154785 13:0.093947 14:-0.014428 15:-0.051602 16:-0.044537 17:-0.101087 18:-0.018765 19:0.05377 20:0.049834 21:-0.125913 22:0.037689 
6.87307482262297 6:1 11:0.009385 12:0.150879 13:-0.047944 14:0.004578 15:-0.01423 16:-0.012029 17:-0.099691 18:0.006913 19:-0.091862 20:0.040584 21:0.044331 22:-0.131067 
16 1:1 11:0.005924 12:0.150879 13:0.006913 14:-0.091862 15:0.040584 16:0.044331 17:-0.131067 18:-0.036344 19:-0.003568 20:-0.056558 21:-0.066471 22:0.005964 
1.604585756504612 8:1 11:-0.006872 12:0.147339 13:-0.030314 14:0.018923 15:-0.072067 16:-0.054594 17:-0.178107 18:-0.023296 19:0.066527 20:-0.022233 21:-0.038855 22:0.023978 
16 8:1 11:-0.010558 12:0.149048 13:-0.029442 14:0.031298 15:0.005328 16:-0.041912 17:-0.147115 18:-0.030449 19:0.069112 20:-0.019128 21:-0.032597 22:0.005426 
16 2:1 11:-0.012237 12:0.149048 13:-0.100724 14:0.00751 15:0.070499 16:-0.011556 17:-0.034088 18:-0.064153 19:-0.088678 20:0.005749 21:0.027297 22:0.035137 
15.31223951998594 1:1 11:-0.014446 12:0.150604 13:0.035137 14:-0.111818 15:0.018068 16:0.074584 17:-0.014593 18:-0.054938 19:-0.006703 20:-0.00737 21:0.02818 22:0.022779 
16 1:1 11:-0.018108 12:0.150604 13:0.018539 14:-0.105627 15:0.006125 16:-0.043234 17:-0.02203 18:-0.070886 19:-0.068796 20:-0.03057 21:0.041367 22:0.025134 
2.986915994250325 7:1 11:-0.024059 12:0.150208 13:0.034319 14:-0.030267 15:0.010624 16:0.010174 17:0.016112 18:-0.123544 19:0.018023 20:0.118477 21:-0.004388 22:-0.048261 
16 6:1 11:-0.022849 12:0.150208 13:-0.048261 14:-0.008138 15:-0.019943 16:0.036864 17:0.007247 18:-0.040908 19:-0.141903 20:-0.002241 21:0.099012 22:-0.007377 
16 1:1 11:-0.02849 12:0.152435 13:0.024084 14:-0.118598 15:0.033724 16:0.092524 17:-0.011771 18:-0.05205 19:-0.009527 20:-0.000645 21:0.039523 22:0.012587 
10.02348472483037 6:1 11:-0.028697 12:0.152435 13:-0.05205 14:-0.009527 15:-0.000645 16:0.039523 17:0.012587 18:-0.052027 19:-0.129519 20:-0.00334 21:0.099159 22:-0.007516 
16 4:1 11:-0.033893 12:0.152435 13:0.099159 14:-0.007516 15:-0.044717 16:-0.03373 17:-0.088423 18:-0.043842 19:-0.065169 20:0.035741 21:-0.057267 22:0.03621 
16 1:1 11:-0.036482 12:0.154266 13:0.062333 14:-0.117481 15:0.024938 16:0.093785 17:-0.006239 18:-0.084945 19:-0.086227 20:-0.018224 21:0.078008 22:-0.046636 
16 7:1 11:-0.041617 12:0.154266 13:-0.086227 14:-0.018224 15:0.078008 16:-0.046636 17:-0.010722 18:-0.163164 19:-0.071403 20:0.070406 21:0.026553 22:-0.003918 
0.06312175879265544 9:1 11:-0.041635 12:0.154266 13:0.078008 14:-0.046636 15:-0.010722 16:-0.163164 17:-0.071403 18:0.070406 19:0.026553 20:-0.003918 21:0.004433 22:-0.012426 
16 2:1 11:-0.042707 12:0.155426 13:-0.08538 14:0.042732 15:0.083201 16:-0.062999 17:-0.07007 18:-0.045121 19:-0.006797 20:0.048484 21:-0.048901 22:0.01383 
7.279045260741064 1:1 11:-0.045456 12:0.157013 13:0.025955 14:-0.092522 15:0.023314 16:0.083714 17:-0.005124 18:-0.081769 19:-0.070438 20:-0.033542 21:0.060285 22:0.035429 
16 7:1 11:-0.048662 12:0.15921 13:-0.007962 14:-0.009349 15:0.038773 16:-0.059463 17:-0.005502 18:-0.132494 19:0.035393 20:0.07512 21:0.005625 22:-0.040752 
14.04347900281421 5:1 11:-0.045683 12:0.15921 13:0.005749 14:-0.023167 15:-0.005236 16:-0.025706 17:0.055102 18:-0.069002 19:-0.001421 20:-0.125813 21:0.048925 22:0.098264 
16 6:1 11:-0.048354 12:0.160004 13:-0.004271 14:0.000155 15:-0.026565 16:0.039941 17:0.020303 18:-0.021774 19:-0.146219 20:-0.004858 21:0.118722 22:0.006796 
16 1:1 11:-0.048495 12:0.160248 13:0.03488 14:-0.08752 15:0.024581 16:0.09926 17:-0.00656 18:-0.077122 19:-0.075193 20:-0.023691 21:0.050578 22:0.018824 
16 7:1 11:-0.060932 12:0.159363 13:-0.014383 14:-0.004403 15:0.069464 16:-0.032931 17:-0.019087 18:-0.118476 19:0.045006 20:0.099251 21:-0.001631 22:-0.079035 
16 1:1 11:-0.066714 12:0.158295 13:0.048316 14:-0.080295 15:0.032924 16:0.087374 17:0.009563 18:-0.085338 19:-0.077581 20:-0.002556 21:0.054141 22:0.034755 
16 6:1 11:-0.069349 12:0.156738 13:-0.031907 14:-0.020629 15:-0.025794 16:-0.011871 17:-0.099679 18:-0.088574 19:-0.187019 20:-0.018437 21:0.042421 22:-0.069196 
16 6:1 11:-0.083014 12:0.157013 13:-0.041029 14:-0.007679 15:-0.033607 16:-0.01142 17:-0.11242 18:-0.002164 19:-0.077451 20:0.019924 21:0.028551 22:-0.134028 
7.680969747636006 9:1 11:-0.083644 12:0.158966 13:-0.01142 14:-0.11242 15:-0.002164 16:-0.077451 17:0.019924 18:0.028551 19:-0.134028 20:-0.028542 21:-0.005223 22:-0.012231 
16 1:1 11:-0.087202 12:0.158966 13:-0.002164 14:-0.077451 15:0.019924 16:0.028551 17:-0.134028 18:-0.028542 19:-0.005223 20:-0.012231 21:0.005955 22:0.028094 
16 7:1 11:-0.088903 12:0.157135 13:-0.005223 14:-0.012231 15:0.005955 16:0.028094 17:2.2e-05 18:-0.094323 19:0.011561 20:0.058054 21:-0.011054 22:-0.041535 
16 7:1 11:-0.092602 12:0.157135 13:-0.002867 14:-0.019002 15:0.000277 16:0.025268 17:-0.00607 18:-0.093237 19:0.022114 20:0.057645 21:-0.009907 22:-0.040096 
16 1:1 11:-0.094851 12:0.159729 13:0.003152 14:-0.076244 15:0.0116 16:0.05504 17:-0.027353 18:-0.042209 19:0.007558 20:-0.01392 21:0.015599 22:0.021321 
16 1:1 11:-0.102674 12:0.162476 13:0.022915 14:-0.059533 15:0.00715 16:0.082385 17:-0.033772 18:-0.034779 19:-0.018766 20:0.00038 21:0.012373 22:0.042981 
16 7:1 11:-0.103947 12:0.162476 13:-0.018766 14:0.00038 15:0.012373 16:0.042981 17:-0.013291 18:-0.080892 19:0.00154 20:-0.081586 21:-0.013411 22:-0.008883 
16 7:1 11:-0.107624 12:0.164825 13:0.002628 14:-0.007303 15:0.003561 16:0.033408 17:-0.021169 18:-0.073245 19:0.01503 20:0.088211 21:-0.018991 22:-0.035667 
16 1:1 11:-0.106535 12:0.165222 13:-0.021169 14:-0.073245 15:0.01503 16:0.088211 17:-0.018991 18:-0.035667 19:-0.004083 20:0.001651 21:-0.000875 22:0.026661 
0.8098923781896501 7:1 11:-0.107973 12:0.165222 13:-0.004083 14:0.001651 15:-0.000875 16:0.026661 17:-0.011113 18:-0.076518 19:0.007254 20:-0.058227 21:-0.010099 22:-0.008973 
16 7:1 11:-0.111618 12:0.165222 13:-0.007398 14:-0.001544 15:0.003769 16:0.02184 17:-0.008968 18:-0.099943 19:-0.104081 20:0.09982 21:-0.002473 22:-0.032017 
16 1:1 11:-0.112315 12:0.166656 13:0.000821 14:-0.056637 15:0.027025 16:0.062933 17:-0.02216 18:-0.03531 19:0.006863 20:-0.001417 21:0.003906 22:0.046738 
16 9:1 11:-0.111489 12:0.166656 13:-0.00048 14:0.046773 15:-0.015599 16:-0.060019 17:0.024855 18:0.023567 19:-0.107087 20:-0.027562 21:0.013303 22:-0.007832 
16 1:1 11:-0.114527 12:0.166656 13:-0.015599 14:-0.060019 15:0.024855 16:0.023567 17:-0.107087 18:-0.027562 19:0.013303 20:-0.007832 21:0.007286 22:0.045217 
2.123715021126268 6:1 11:-0.067395 12:0.189087 13:0.017595 14:0.022668 15:0.015159 16:0.035225 17:-0.074135 18:0.029047 19:-0.036939 20:0.077343 21:0.134745 22:0.027627 
2.915340634652017 5:1 11:-0.057371 12:0.188171 13:0.024187 14:0.023826 15:0.037826 16:0.016476 17:0.069565 18:-0.035588 19:-0.012538 20:-0.09925 21:0.062077 22:0.138986 
16 2:1 11:-0.056552 12:0.185425 13:-0.076687 14:0.044222 15:0.136472 16:-0.063789 17:-0.103769 18:-0.069804 19:-0.058264 20:0.064373 21:-0.000253 22:-0.008585 
16 2:1 11:-0.027178 12:0.173706 13:-0.102976 14:0.048111 15:0.124447 16:-0.004535 17:-0.017579 18:-0.058649 19:-0.083991 20:0.039511 21:0.065699 22:0.025672 
16 7:1 11:-0.029099 12:0.173706 13:-0.058649 14:-0.083991 15:0.039511 16:0.065699 17:0.025672 18:-0.140497 19:-0.066313 20:0.096528 21:0.01397 22:-0.031932 
16 1:1 11:-0.031227 12:0.169128 13:0.073868 14:-0.106771 15:0.047943 16:0.089512 17:-0.134442 18:-0.02473 19:0.003314 20:0.000907 21:0.069293 22:0.016707 
3.446450344597896 7:1 11:-0.030895 12:0.169006 13:-0.002343 14:-0.010719 15:0.052448 16:-0.044745 17:0.009671 18:-0.142633 19:0.03224 20:0.087994 21:0.021138 22:-0.017599 
12.04735652766172 3:1 11:-0.029289 12:0.169006 13:0.03224 14:0.087994 15:0.021138 16:-0.017599 17:0.006269 18:-0.052242 19:-0.046052 20:0.026636 21:0.049602 22:-0.103884 
8.570082296144257 2:1 11:-0.032068 12:0.167297 13:-0.098681 14:0.057535 15:0.121601 16:-0.000426 17:-0.040395 18:-0.049304 19:-0.090959 20:0.037883 21:0.053107 22:-0.017632 
16 1:1 11:-0.034824 12:0.164947 13:-0.017632 14:-0.140746 15:-0.005915 16:0.110917 17:0.005082 18:-0.08528 19:-0.08384 20:-0.007233 21:0.057336 22:0.04419 
16 6:1 11:-0.029109 12:0.166901 13:-0.011869 14:0.007692 15:0.002211 16:0.032372 17:-0.103216 18:0.03525 19:-0.083812 20:0.040799 21:0.129596 22:0.014074 
16 6:1 11:-0.033949 12:0.164825 13:0.017627 14:0.023068 15:-0.023033 16:0.032252 17:-0.100462 18:0.041458 19:-0.109305 20:-0.10072 21:0.103175 22:0.025866 
8.941195290293741 3:1 11:-0.03868 12:0.166779 13:0.044473 14:0.075541 15:-0.134615 16:-0.016281 17:0.022643 18:-0.0447 19:-0.045395 20:-0.046386 21:0.023756 22:-0.121088 
7.029257866039531 5:1 11:-0.040593 12:0.166779 13:-0.134615 14:-0.016281 15:0.022643 16:-0.0447 17:-0.045395 18:-0.046386 19:0.023756 20:-0.121088 21:0.01928 22:-0.026864 
5.377440925165554 7:1 11:-0.04511 12:0.166779 13:0.015376 14:-0.008191 15:0.073236 16:-0.051732 17:-0.012204 18:-0.132551 19:0.053365 20:0.114134 21:-0.061244 22:-0.057373 
16 2:1 11:-0.03397 12:0.16861 13:-0.100222 14:0.046253 15:0.101749 16:-0.068538 17:-0.067166 18:-0.034893 19:0.009496 20:0.049168 21:0.036206 22:0.053376 
16 2:1 11:-0.019599 12:0.164429 13:-0.120464 14:0.043084 15:0.096033 16:0.009059 17:-0.051571 18:-0.062852 19:-0.114175 20:-0.095599 21:0.044917 22:0.049603 
16 6:1 11:-0.018891 12:0.164429 13:-0.007224 14:-0.008163 15:-0.009918 16:0.057541 17:0.004518 18:0.004619 19:-0.114228 20:0.053311 21:0.061968 22:-0.11441 
16 1:1 11:-0.022969 12:0.164703 13:0.004619 14:-0.114228 15:0.053311 16:0.061968 17:-0.11441 18:-0.086243 19:-0.063504 20:-0.025542 21:0.025203 22:-0.082538 
16 6:1 11:-0.025173 12:0.164703 13:-0.086243 14:-0.063504 15:-0.025542 16:0.025203 17:-0.082538 18:0.038818 19:-0.084771 20:0.05266 21:0.11352 22:-0.007371 
16 2:1 11:-0.023344 12:0.164307 13:-0.103094 14:0.016564 15:0.106845 16:0.00438 17:-0.049739 18:-0.053424 19:-0.082278 20:0.029548 21:0.049176 22:0.030524 
16 2:1 11:-0.023583 12:0.164307 13:-0.102778 14:0.04126 15:0.103784 16:0.002887 17:-0.032164 18:-0.051926 19:-0.085103 20:0.016533 21:0.051964 22:0.033358 
16 6:1 11:-0.024518 12:0.165619 13:0.001217 14:0.003469 15:-0.010929 16:0.080165 17:0.007109 18:-0.024825 19:-0.162797 20:0.000752 21:0.125959 22:0.007034 
16 8:1 11:-0.028286 12:0.165222 13:0.005018 14:0.05694 15:0.018594 16:-0.007432 17:-0.140981 18:-0.016469 19:0.112854 20:0.019967 21:-0.014686 22:-0.005225 
3.033793417816747 3:1 11:-0.032166 12:0.165619 13:0.049284 14:0.117954 15:-0.004626 16:-0.077691 17:-0.075102 18:-0.037403 19:0.073409 20:-0.03167 21:-0.004841 22:-0.117188 
3.088759781867942 1:1 11:-0.034416 12:0.164551 13:-0.003444 14:-0.131151 15:0.051805 16:0.087377 17:-0.144326 18:0.009076 19:0.011689 20:0.002454 21:0.061831 22:0.033362 
5.40651409279624 2:1 11:-0.034787 12:0.167053 13:-0.134455 14:0.041734 15:0.122025 16:0.021979 17:-0.040219 18:-0.044703 19:-0.095645 20:0.029384 21:0.062294 22:0.048492 
16 6:1 11:-0.028726 12:0.166779 13:-0.02904 14:0.020531 15:0.009407 16:0.048087 17:0.00111 18:-0.03194 19:-0.139459 20:-0.01327 21:-0.022897 22:-0.000523 
14.29556102033921 6:1 11:-0.031433 12:0.162354 13:-0.027524 14:-0.002397 15:-0.001802 16:0.068942 17:0.007958 18:0.034859 19:-0.117181 20:0.005264 21:-0.038068 22:0.010617 
16 1:1 11:-0.049344 12:0.160645 13:0.047081 14:-0.053912 15:0.015159 16:0.115753 17:-0.071497 18:-0.11343 19:-0.101743 20:-0.072734 21:0.0424 22:0.015897 
16 2:1 11:-0.051485 12:0.160645 13:-0.053912 14:0.015159 15:0.115753 16:-0.071497 17:-0.11343 18:-0.101743 19:-0.072734 20:0.0424 21:0.015897 22:0.024923 
16 3:1 11:-0.053019 12:0.160645 13:0.015159 14:0.115753 15:-0.071497 16:-0.11343 17:-0.101743 18:-0.072734 19:0.0424 20:0.015897 21:0.024923 22:-0.115769 
16 1:1 11:-0.063763 12:0.161041 13:0.025108 14:-0.107791 15:0.006109 16:0.054829 17:-0.151089 18:-0.008817 19:-0.006524 20:-0.022028 21:0.018703 22:0.00965 
13.22615186823652 3:1 11:-0.064372 12:0.161041 13:0.006109 14:0.054829 15:-0.151089 16:-0.008817 17:-0.006524 18:-0.022028 19:0.018703 20:0.00965 21:0.020705 22:-0.096279 
16 3:1 11:-0.06522 12:0.159729 13:0.002386 14:0.088993 15:0.001995 16:-0.029343 17:-0.028319 18:-0.028333 19:0.036577 20:0.003221 21:0.021914 22:-0.080795 
16 10:1 11:-0.075099 12:0.162354 13:0.037109 14:-0.051957 15:-0.156155 16:-0.156417 17:0.085636 18:-0.0703 19:-0.074558 20:-0.01508 21:0.021294 22:0.023786 
5.646267233715447 4:1 11:-0.09275 12:0.164551 13:0.096763 14:-0.077045 15:-0.084743 16:-0.016932 17:0.013924 18:-0.034625 19:-0.099277 20:-0.010886 21:-0.057287 22:0.020857 
16 2:1 11:-0.099656 12:0.165222 13:-0.057287 14:0.020857 15:0.084979 16:-0.077 17:-0.092665 18:-0.080846 19:-0.074885 20:-0.000135 21:0.079664 22:-0.005273 
11.50239451309406 7:1 11:-0.101251 12:0.165222 13:-0.080846 14:-0.074885 15:-0.000135 16:0.079664 17:-0.005273 18:-0.071296 19:0.025293 20:0.087418 21:-0.009997 22:-0.025817 
4.553694140976475 4:1 11:-0.098973 12:0.168213 13:0.072798 14:-0.021425 15:-0.024695 16:-0.001773 17:-0.006669 18:0.004264 19:0.048287 20:0.013167 21:-0.08205 22:0.019644 
13.25847035145776 5:1 11:-0.098384 12:0.169403 13:-0.020302 14:-0.018972 15:-0.008658 16:0.004744 17:0.022528 18:-0.037452 19:-0.048701 20:-0.100881 21:0.045733 22:0.07829 
16 7:1 11:-0.101706 12:0.169403 13:-0.008658 14:0.004744 15:0.022528 16:-0.037452 17:-0.048701 18:-0.100881 19:0.045733 20:0.07829 21:-0.011137 22:-0.022392 
16 1:1 11:-0.10526 12:0.172394 13:0.006226 14:-0.086412 15:-0.110879 16:0.030412 17:-0.084312 18:-0.05708 19:-0.084557 20:-0.01057 21:0.019161 22:0.062288 
14.11546634843526 1:1 11:-0.105511 12:0.174072 13:0.011278 14:-0.046608 15:0.044116 16:0.087518 17:-0.013413 18:-0.080641 19:-0.11119 20:-0.047048 21:-0.094073 22:0.051328 
0.2751029089539782 7:1 11:-0.107101 12:0.175903 13:-0.09259 14:0.017272 15:0.051527 16:0.015672 17:-0.037978 18:-0.071124 19:0.079823 20:0.097649 21:-0.007794 22:0.032954 
1.892977185167942 9:1 11:-0.100415 12:0.174988 13:0.045952 14:0.089789 15:0.06246 16:-0.040343 17:0.037707 18:0.055394 19:-0.100505 20:0.007038 21:0.033318 22:0.034363 
4.261967500244702 1:1 11:-0.102498 12:0.174988 13:0.06246 14:-0.040343 15:0.037707 16:0.055394 17:-0.100505 18:0.007038 19:0.033318 20:0.034363 21:0.010043 22:0.070708 
2.806406422630404 4:1 11:-0.094467 12:0.176422 13:0.099473 14:0.025782 15:0.008784 16:0.023793 17:0.0209 18:-0.008757 19:-0.063094 20:0.038851 21:-0.03534 22:0.027816 
16 1:1 11:-0.077165 12:0.173035 13:-0.020333 14:-0.16952 15:-0.137371 16:0.058322 17:-0.067617 18:-0.042432 19:-0.054348 20:-0.003235 21:0.059272 22:0.076308 
16 6:1 11:-0.048552 12:0.172394 13:-0.028572 14:0.009698 15:-0.005191 16:0.011638 17:-0.078102 18:-0.035252 19:-0.111362 20:0.017841 21:0.116336 22:0.001474 
16 6:1 11:-0.047986 12:0.169251 13:-0.010925 14:0.01654 15:-0.018843 16:0.012973 17:-0.09442 18:-0.023131 19:-0.118254 20:0.009801 21:0.108342 22:0.016295 
15.75969521335651 1:1 11:-0.02787 12:0.166901 13:0.025541 14:-0.105788 15:0.039483 16:0.099844 17:-0.018956 18:-0.050669 19:-0.002348 20:0.006503 21:0.04531 22:-0.050512 
16 7:1 11:-0.031629 12:0.166901 13:-0.002348 14:0.006503 15:0.04531 16:-0.050512 17:-0.007551 18:-0.173902 19:-0.088273 20:0.076048 21:0.017913 22:-0.070044 
3.435109847319902 5:1 11:-0.037101 12:0.165466 13:0.02877 14:-0.00641 15:-0.00382 16:-0.041017 17:-0.062732 18:0.002047 19:0.060632 20:-0.082199 21:0.041682 22:0.093755 
16 7:1 11:-0.039514 12:0.165863 13:-0.016438 14:0.002546 15:0.075581 16:-0.059437 17:0.001942 18:-0.168417 19:-0.084377 20:0.087239 21:0.028227 22:0.003137 
16 2:1 11:-0.046562 12:0.167419 13:-0.092044 14:-0.002694 15:-0.034983 16:-0.047377 17:-0.053116 18:-0.051451 19:-0.067364 20:-0.025948 21:-0.056228 22:0.041356 
6.819794109536755 1:1 11:-0.049796 12:0.166656 13:0.041356 14:-0.054989 15:0.032615 16:0.095111 17:-0.116753 18:-0.001651 19:0.006858 20:0.005758 21:0.070828 22:0.029767 
16 7:1 11:-0.04985 12:0.167969 13:0.002878 14:-0.009167 15:0.080572 16:-0.049812 17:0.002563 18:-0.136078 19:0.043383 20:0.103287 21:-0.002515 22:-0.027191 
16 2:1 11:-0.051373 12:0.167297 13:-0.052227 14:0.043328 15:0.119321 16:-0.072562 17:-0.099575 18:-0.033332 19:0.00715 20:0.055866 21:0.048268 22:0.049575 
16 7:1 11:-0.052834 12:0.168091 13:-0.051197 14:-0.093719 15:0.019815 16:-0.016006 17:0.009049 18:-0.133508 19:-0.088217 20:0.075359 21:0.041011 22:-0.005781 
16 3:1 11:-0.046358 12:0.16861 13:0.035431 14:0.103691 15:0.015214 16:-0.012266 17:0.001575 18:-0.06233 19:-0.055874 20:0.010943 21:0.071681 22:-0.086606 
16 2:1 11:-0.053087 12:0.162079 13:-0.136294 14:-0.035041 15:0.0821 16:-0.095894 17:-0.167038 18:-0.120002 19:-0.070971 20:0.026468 21:0.026291 22:0.05394 
16 3:1 11:-0.054586 12:0.162079 13:-0.035041 14:0.0821 15:-0.095894 16:-0.167038 17:-0.120002 18:-0.070971 19:0.026468 20:0.026291 21:0.05394 22:-0.054443 
16 3:1 11:-0.05812 12:0.162231 13:0.007199 14:-0.073889 15:-0.008086 16:-0.036206 17:-0.026307 18:-0.081835 19:-0.086673 20:0.003474 21:0.036823 22:-0.109165 
6.527744885858195 3:1 11:-0.064974 12:0.162598 13:-0.127789 14:0.085384 15:-0.013377 16:-0.029371 17:-0.016811 18:-0.064301 19:-0.096961 20:-0.000728 21:0.026653 22:-0.096624 
16 1:1 11:-0.06802 12:0.162598 13:0.026653 14:-0.096624 15:0.031609 16:0.073215 17:-0.031137 18:-0.048221 19:-0.020432 20:-0.012655 21:0.025068 22:-0.065002 
16 5:1 11:-0.069589 12:0.162598 13:-0.031137 14:-0.048221 15:-0.020432 16:-0.012655 17:0.025068 18:-0.065002 19:-0.03039 20:-0.104276 21:0.026394 22:0.076332 
11.52706067039509 10:1 11:-0.07215 12:0.164551 13:-0.065002 14:-0.03039 15:-0.104276 16:0.026394 17:0.076332 18:-0.087115 19:-0.104888 20:-0.032513 21:-0.005893 22:0.026258 
16 7:1 11:-0.079908 12:0.1651 13:-0.005234 14:-0.019444 15:0.021321 16:-0.053993 17:-0.036257 18:-0.114198 19:0.000513 20:-0.063543 21:-0.001326 22:-0.004501 
7.617568758510517 2:1 11:-0.085279 12:0.165985 13:-0.103485 14:-0.127945 15:0.078814 16:0.011787 17:-0.014227 18:-0.070088 19:-0.091094 20:-0.00118 21:0.038822 22:-0.041633 
16 7:1 11:-0.092319 12:0.167572 13:-0.001685 14:-0.024858 15:0.015516 16:0.03233 17:0.008069 18:-0.106288 19:-0.106109 20:0.082935 21:0.019198 22:-0.011995 
16 4:1 11:-0.092416 12:0.167816 13:0.071603 14:-0.001718 15:-0.03072 16:-0.005218 17:-0.012996 18:-0.003119 19:0.053152 20:0.023257 21:-0.077978 22:0.009246 
16 4:1 11:-0.09839 12:0.170288 13:0.073917 14:0.002607 15:-0.001766 16:-0.014399 17:-0.009005 18:0.003087 19:0.036938 20:0.021258 21:-0.063841 22:0.032287 
16 1:1 11:-0.098347 12:0.170288 13:0.021258 14:-0.063841 15:0.032287 16:0.066175 17:-0.005366 18:-0.085633 19:-0.08756 20:-0.025916 21:0.02252 22:0.054844 
16 9:1 11:-0.095158 12:0.17279 13:0.015637 14:0.036037 15:0.023763 16:-0.062986 17:0.038149 18:0.043308 19:-0.09171 20:0.002877 21:0.038634 22:0.020861 
1.77880044874992 4:1 11:-0.09549 12:0.174225 13:0.043308 14:-0.09171 15:0.002877 16:0.038634 17:0.020861 18:0.014452 19:0.068718 20:0.040379 21:-0.089023 22:-0.106179 
16 6:1 11:-0.053565 12:0.169251 13:-0.013788 14:0.008005 15:-0.000724 16:0.050277 17:0.014479 18:-0.037661 19:-0.133397 20:0.003335 21:0.114657 22:0.0025 
4.624312264092461 2:1 11:-0.036997 12:0.168854 13:-0.090191 14:0.033214 15:0.098955 16:0.014652 17:-0.024655 18:-0.019219 19:-0.004411 20:0.062892 21:0.024515 22:0.045587 
1.179407624147914 2:1 11:-0.032244 12:0.166656 13:-0.133572 14:-0.098036 15:0.094334 16:0.029236 17:-0.031821 18:-0.006646 19:-0.000453 20:0.073395 21:0.012342 22:0.03086 
7.686215379993699 6:1 11:-0.029846 12:0.166656 13:-0.031821 14:-0.006646 15:-0.000453 16:0.073395 17:0.012342 18:0.03086 19:-0.110633 20:0.053498 21:0.089268 22:-0.001799 
7.00353410110896 3:1 11:-0.028758 12:0.167297 13:0.035127 14:0.102485 15:-0.004602 16:-0.021905 17:-0.012414 18:-0.027911 19:0.066758 20:0.01119 21:0.042931 22:-0.117533 
16 6:1 11:-0.028933 12:0.164551 13:-0.027594 14:-0.006653 15:-0.00766 16:0.056511 17:0.008158 18:0.026718 19:-0.11662 20:0.049309 21:0.097989 22:0.006822 
16 10:1 11:-0.033963 12:0.163513 13:0.024057 14:-0.03196 15:-0.155363 16:-0.033161 17:-0.029935 18:-0.063958 19:-0.041567 20:-0.022111 21:0.00812 22:0.050471 
10.13451215898399 2:1 11:-0.035282 12:0.164551 13:-0.155363 14:-0.033161 15:-0.029935 16:-0.063958 17:-0.041567 18:-0.022111 19:0.00812 20:0.050471 21:-0.060938 22:0.025874 
16 5:1 11:-0.035331 12:0.164551 13:-0.063958 14:-0.041567 15:-0.022111 16:0.00812 17:0.050471 18:-0.060938 19:0.025874 20:-0.123004 21:0.038905 22:0.105009 
16 2:1 11:-0.035457 12:0.164551 13:-0.095674 14:0.034874 15:0.101455 16:-0.061282 17:-0.081083 18:-0.040398 19:-0.0017 20:0.049038 21:0.026092 22:0.055761 
16 6:1 11:-0.036627 12:0.1651 13:0.006186 14:-0.012256 15:-0.00309 16:0.029405 17:-0.095658 18:0.022831 19:-0.084796 20:0.038828 21:0.113153 22:0.000745 
16 6:1 11:-0.0324 12:0.166138 13:-0.031791 14:-0.012305 15:-0.003248 16:0.056287 17:0.017908 18:-0.040312 19:-0.14638 20:0.009525 21:0.064514 22:-0.105744 
9.220259675670565 5:1 11:-0.036232 12:0.166382 13:-0.078018 14:-0.083641 15:-0.026248 16:0.016549 17:0.044785 18:-0.046812 19:0.004726 20:-0.115562 21:0.026286 22:0.094867 
11.34525357869562 3:1 11:-0.036625 12:0.166382 13:0.029191 14:0.109662 15:0.010772 16:-0.079777 17:-0.086838 18:-0.038079 19:0.068544 20:0.037225 21:0.041529 22:-0.088365 
5.737781137599701 2:1 11:-0.033795 12:0.166138 13:-0.092582 14:0.010844 15:-0.038804 16:-0.072729 17:-0.048745 18:-0.025015 19:-0.034193 20:-0.063094 21:0.023114 22:0.072353 
16 7:1 11:-0.036445 12:0.164551 13:-0.010888 14:-0.001798 15:0.073188 16:-0.061211 17:0.003532 18:-0.148761 19:0.038961 20:0.101016 21:0.003654 22:-0.030336 
16 6:1 11:-0.034882 12:0.164551 13:-0.030336 14:0.011705 15:-0.00743 16:0.01395 17:-0.09181 18:0.03568 19:-0.079629 20:0.05018 21:0.106683 22:0.005077 
16 6:1 11:-0.04858 12:0.163116 13:-0.070426 14:-0.079308 15:-0.000944 16:0.064068 17:0.016253 18:-0.023121 19:-0.142109 20:0.001819 21:0.09327 22:0.00408 
16 5:1 11:-0.04784 12:0.162476 13:-0.007912 14:-0.031248 15:0.009649 16:-0.00918 17:0.041374 18:-0.056474 19:0.001159 20:-0.112949 21:0.044692 22:0.084341 
6.134428068470902 2:1 11:-0.050555 12:0.162476 13:-0.112949 14:0.044692 15:0.084341 16:-0.046962 17:-0.060743 18:-0.038771 19:-0.032989 20:-0.032082 21:0.014582 22:-0.14644 
16 6:1 11:-0.054712 12:0.162476 13:-0.060743 14:-0.038771 15:-0.032989 16:-0.032082 17:0.014582 18:-0.14644 19:-0.203543 20:-0.038207 21:-0.046088 22:0.025414 
16 10:1 11:-0.06837 12:0.161682 13:-0.058322 14:-0.10228 15:-0.177927 16:-0.007544 17:0.081806 18:-0.031065 19:-0.022863 20:0.004877 21:-0.011366 22:0.028849 
16 10:1 11:-0.070345 12:0.161682 13:0.001742 14:0.020133 15:-0.078565 16:-0.010041 17:0.057783 18:-0.082502 19:-0.08792 20:-0.020226 21:-0.012284 22:0.006386 
8.713837041476088 6:1 11:-0.076685 12:0.163513 13:-0.043785 14:-0.02376 15:-0.018141 16:0.025014 17:0.014898 18:-0.044929 19:-0.149868 20:-0.012881 21:0.073683 22:-0.073024 
3.966354215218334 3:1 11:-0.083324 12:0.163513 13:0.006677 14:0.063599 15:-0.013416 16:-0.009361 17:-0.01613 18:-0.053693 19:-0.092449 20:0.015239 21:-0.041747 22:-0.13728 
9.469719718169344 6:1 11:-0.085924 12:0.165863 13:-0.009361 14:-0.01613 15:-0.053693 16:-0.092449 17:0.015239 18:-0.041747 19:-0.13728 20:-0.006179 21:0.085251 22:0.003187 
16 5:1 11:-0.088994 12:0.164825 13:0.003187 14:-0.035649 15:-0.001657 16:-0.013359 17:0.029651 18:-0.064237 19:-0.041428 20:-0.073483 21:0.019798 22:0.068352 
16 5:1 11:-0.098054 12:0.164825 13:-0.015774 14:-0.027249 15:-0.070996 16:-0.121291 17:-0.12494 18:-0.023725 19:-0.002925 20:-0.093329 21:0.027618 22:0.051056 
14.99699679816975 7:1 11:-0.098692 12:0.168335 13:0.014286 14:0.004751 15:0.031689 16:0.030184 17:0.008656 18:-0.090313 19:0.001328 20:0.077527 21:-0.023747 22:-0.020122 
16 6:1 11:-0.110388 12:0.170837 13:0.028836 14:0.005937 15:-0.042764 16:-0.100998 17:0.037157 18:-0.034328 19:-0.125846 20:0.019368 21:0.092456 22:0.001956 
16 1:1 11:-0.11325 12:0.172913 13:0.020397 14:-0.032495 15:0.021549 16:0.07271 17:-0.025428 18:-0.062581 19:-0.096535 20:0.008486 21:0.017049 22:0.063572 
13.62819065122179 4:1 11:-0.112522 12:0.177856 13:0.090598 14:0.025685 15:0.013818 16:0.018857 17:0.01938 18:-0.013542 19:-0.068844 20:0.033356 21:-0.044409 22:-0.087914 
0.816792017086757 2:1 11:-0.090304 12:0.176422 13:-0.058897 14:0.012737 15:-0.037926 16:-0.060648 17:-0.055546 18:0.005383 19:0.033971 20:0.035518 21:0.05989 22:0.040446 
3.356354416811988 3:1 11:-0.083245 12:0.176941 13:0.032065 14:0.101361 15:0.009699 16:-0.059207 17:-0.071967 18:-0.047655 19:-0.067395 20:0.056069 21:0.062964 22:-0.052354 
16 5:1 11:-0.074778 12:0.175903 13:-0.091047 14:0.021602 15:0.026914 16:0.020096 17:0.039867 18:-0.031954 19:-0.014106 20:-0.087968 21:0.054583 22:0.106626 
16 2:1 11:-0.065298 12:0.176422 13:-0.05391 14:0.045876 15:0.108502 16:-0.049359 17:-0.075498 18:-0.030832 19:0.011319 20:0.048087 21:0.059652 22:0.045355 
16 2:1 11:-0.058026 12:0.170563 13:-0.085277 14:0.06233 15:0.105306 16:-0.056762 17:-0.089936 18:-0.019636 19:0.012543 20:0.051281 21:0.045643 22:0.041537 
15.81627249212188 10:1 11:-0.055146 12:0.170563 13:0.045643 14:0.041537 15:-0.07249 16:0.03886 17:0.089752 18:-0.071365 19:-0.063814 20:-0.022317 21:0.021726 22:0.047455 
16 6:1 11:-0.053845 12:0.169525 13:-0.068597 14:-0.079919 15:-0.022029 16:0.026476 17:-0.096569 18:0.045681 19:-0.064774 20:0.036297 21:0.101919 22:0.006573 
4.090023028334647 6:1 11:-0.057776 12:0.169647 13:-0.067379 14:-0.016976 15:0.025592 16:0.039453 17:0.02317 18:-0.01516 19:-0.131689 20:-0.01077 21:-0.045872 22:0.043373 
7.425506897071344 3:1 11:-0.056064 12:0.170166 13:0.001988 14:0.073896 15:-0.104131 16:0.004575 17:0.013204 18:-0.012481 19:0.065917 20:0.019606 21:0.044467 22:-0.074131 
16 6:1 11:-0.048071 12:0.169128 13:-0.027144 14:0.002831 15:-0.003658 16:0.058753 17:0.029758 18:-0.028525 19:-0.153025 20:0.0018 21:0.113442 22:0.012181 
16 3:1 11:-0.046585 12:0.169128 13:0.032743 14:0.09154 15:0.007065 16:-0.021798 17:0.005657 18:-0.060916 19:-0.063891 20:0.005523 21:0.082394 22:-0.08924 
4.844549779830301 8:1 11:-0.047352 12:0.169251 13:0.002915 14:0.051005 15:0.043931 16:-0.021809 17:-0.142756 18:-0.020034 19:0.114553 20:0.008433 21:-0.019079 22:0.011124 
16 6:1 11:-0.040558 12:0.169251 13:-0.025954 14:0.011305 15:-0.006888 16:0.052711 17:0.014278 18:-0.017683 19:-0.137376 20:-0.001274 21:0.115661 22:0.022498 
15.87042215055332 5:1 11:-0.042343 12:0.177216 13:0.027637 14:-0.010866 15:0.022189 16:0.011044 17:0.064964 18:-0.046212 19:-0.002599 20:-0.101145 21:0.064387 22:0.107489 
16 10:1 11:0.031423 12:0.234863 13:0.112426 14:0.05735 15:-0.075882 16:0.095887 17:0.002452 18:-0.153496 19:-0.047691 20:0.037783 21:0.043957 22:0.048968 
0.6035816551098114 1:1 11:0.083652 12:0.218689 13:-0.009752 14:-0.206999 15:0.106968 16:0.244834 17:-0.075527 18:-0.071498 19:0.015079 20:-0.0476 21:-0.00753 22:0.265446 
16 10:1 11:0.091145 12:0.218689 13:0.223374 14:-0.029795 15:-0.187158 16:0.085414 17:0.075088 18:-0.217243 19:-0.037852 20:0.080624 21:-0.026762 22:-0.006413 
16 1:1 11:0.099791 12:0.213592 13:-0.124838 14:-0.149577 15:-0.00921 16:0.10525 17:-0.178048 18:-0.004888 19:0.057815 20:-0.002913 21:-0.003245 22:0.203981 
8.990523610495057 10:1 11:0.104356 12:0.211762 13:0.221975 14:-0.029902 15:-0.165027 16:0.12111 17:0.161122 18:-0.207539 19:-0.010947 20:0.010038 21:-0.041002 22:-0.020275 
1.446437840531213 8:1 11:0.103293 12:0.211762 13:-0.092966 14:-0.202191 15:0.233696 16:-0.138089 17:-0.125041 18:-0.019899 19:-0.03696 20:-0.0322 21:0.041332 22:0.003665 
16 4:1 11:0.098728 12:0.21283 13:-0.03696 14:-0.0322 15:0.041332 16:0.003665 17:-0.136808 18:-0.090251 19:0.119322 20:-0.036095 21:-0.143956 22:0.159208 
8.420294045562834 10:1 11:0.101658 12:0.21283 13:0.119322 14:-0.036095 15:-0.143956 16:0.159208 17:0.180456 18:-0.117944 19:-0.019414 20:0.100077 21:-0.017743 22:-0.043127 
16 4:1 11:0.106696 12:0.213989 13:0.168982 14:-0.126629 15:0.010684 16:0.023187 17:-0.106098 18:-0.112086 19:0.235437 20:-0.006379 21:-0.147938 22:0.161092 
16 3:1 11:0.126958 12:0.22821 13:0.177111 14:0.14712 15:-0.246821 16:0.043954 17:0.022471 18:-0.110245 19:-0.123797 20:0.257187 21:-0.039099 22:-0.134672 
2.150224753357731 2:1 11:0.235037 12:0.247101 13:-0.303101 14:0.080814 15:0.098462 16:-0.145544 17:0.156163 18:-0.198783 19:-0.07533 20:0.021767 21:0.317612 22:-0.009365 
3.958856687411245 5:1 11:0.272259 12:0.234344 13:-0.129739 14:0.142749 15:0.035685 16:-0.07494 17:0.048748 18:0.094136 19:-0.155062 20:-0.283515 21:0.062656 22:0.223719 
9.818557730096927 9:1 11:0.271079 12:0.234344 13:0.055203 14:0.068898 15:0.047739 16:-0.347517 17:0.201109 18:-0.079592 19:0.001142 20:-0.007438 21:0.051813 22:-0.075079 
11.34632940843155 8:1 11:0.283303 12:0.201721 13:-0.107789 14:-0.003749 15:0.213285 16:-0.056279 17:-0.161585 18:0.064086 19:0.032416 20:0.00859 21:0.046401 22:-0.05903 
15.85183231096003 3:1 11:0.282429 12:0.198852 13:0.070764 14:-0.000632 15:0.051611 16:0.036634 17:-0.045859 18:-0.154223 19:-0.098929 20:0.186022 21:-0.03967 22:-0.144549 
2.661676776547593 8:1 11:0.281915 12:0.198852 13:-0.154223 14:-0.098929 15:0.186022 16:-0.03967 17:-0.144549 18:0.063964 19:0.055485 20:-0.113112 21:0.072202 22:-0.258884 
8.283835133446987 2:1 11:0.2781 12:0.198852 13:-0.144549 14:0.063964 15:0.055485 16:-0.113112 17:0.072202 18:-0.258884 19:-0.050555 20:-0.077802 21:0.268636 22:-0.16389 
16 8:1 11:0.274917 12:0.198852 13:-0.050555 14:-0.077802 15:0.268636 16:-0.16389 17:-0.136341 18:-0.043625 19:0.094166 20:0.001494 21:0.06779 22:-0.015826 
0.3902951132756426 2:1 11:0.277232 12:0.198852 13:-0.136341 14:-0.043625 15:0.094166 16:0.001494 17:0.06779 18:-0.015826 19:-0.115369 20:0.013205 21:0.196456 22:-0.072248 
7.305972301636477 10:1 11:0.276672 12:0.195465 13:0.196456 14:-0.072248 15:-0.178495 16:0.095932 17:-0.009548 18:0.033917 19:0.028731 20:-0.038633 21:-0.098918 22:0.022928 
16 2:1 11:0.276518 12:0.195465 13:-0.178495 14:0.095932 15:-0.009548 16:0.033917 17:0.028731 18:-0.038633 19:-0.098918 20:0.022928 21:0.173495 22:-0.055908 
2.611119141600909 10:1 11:0.276418 12:0.195465 13:0.173495 14:-0.055908 15:-0.155644 16:0.10893 17:-0.022533 18:0.020933 19:-0.0201 20:-0.103467 21:-0.143434 22:-0.012265 
16 2:1 11:0.266654 12:0.194824 13:-0.153306 14:0.085239 15:0.023202 16:-0.088203 17:0.056234 18:-0.15608 19:-0.051653 20:0.042352 21:0.169366 22:-0.039502 
3.531680444685949 8:1 11:0.263439 12:0.192993 13:-0.151652 14:0.051756 15:0.236809 16:-0.086924 17:-0.119821 18:0.059264 19:-0.164693 20:0.02865 21:0.095667 22:-0.006161 
10.54397959980565 3:1 11:0.249379 12:0.193787 13:-0.168839 14:0.183299 15:-0.122639 16:0.043546 17:-0.061541 18:-0.131331 19:0.042345 20:0.232473 21:-0.060847 22:-0.119868 
11.47087912488145 4:1 11:0.248158 12:0.193787 13:-0.022021 14:0.03368 15:0.059137 16:-0.120116 17:-0.113144 18:-0.115781 19:0.164047 20:-0.109453 21:-0.121915 22:0.137229 
8.945462772966657 4:1 11:0.244813 12:0.193512 13:0.075702 14:-0.248043 15:0.178443 16:-0.142629 17:-0.020594 18:0.003209 19:0.059773 20:-0.069379 21:-0.093675 22:0.066826 
1.431108200830603 9:1 11:0.235265 12:0.198212 13:0.027596 14:0.21466 15:-0.074712 16:-0.174984 17:-0.075314 18:0.095138 19:-0.208969 20:0.142638 21:-0.205685 22:-0.071399 
0.5753929921279066 2:1 11:0.230852 12:0.197937 13:-0.174984 14:-0.075314 15:0.095138 16:-0.208969 17:0.142638 18:-0.205685 19:-0.071399 20:-0.036008 21:0.231404 22:-0.018511 
16 3:1 11:0.231823 12:0.197418 13:0.089056 14:0.074484 15:-0.129725 16:0.160194 17:-0.050475 18:-0.101263 19:-0.109054 20:0.182237 21:-0.039008 22:-0.132044 
16 2:1 11:0.230568 12:0.198852 13:-0.150841 14:0.13371 15:-0.098817 16:-0.109421 17:-0.033153 18:-0.088201 19:-0.001503 20:0.024822 21:0.212013 22:-0.159156 
16 8:1 11:0.229078 12:0.199005 13:-0.001503 14:0.024822 15:0.212013 16:-0.159156 17:-0.102749 18:-0.065423 19:-0.004083 20:-0.206186 21:0.142892 22:-0.11053 
16 4:1 11:0.2204 12:0.199249 13:0.076583 14:-0.073182 15:0.121797 16:-0.078324 17:-0.121266 18:-0.108418 19:0.15741 20:-0.107296 21:-0.086138 22:0.152916 
2.485540154079664 10:1 11:0.218651 12:0.199249 13:0.15741 14:-0.107296 15:-0.086138 16:0.152916 17:-0.128304 18:-0.095252 19:0.1513 20:-0.012139 21:-0.040687 22:-0.031446 
7.420676090433957 3:1 11:0.228512 12:0.199249 13:0.088565 14:0.085825 15:-0.120256 16:0.132558 17:-0.035556 18:-0.1119 19:-0.093455 20:0.17198 21:-0.041863 22:-0.107912 
16 3:1 11:0.22644 12:0.199524 13:0.160846 14:0.071296 15:-0.102815 16:0.083002 17:-0.111038 18:-0.108306 19:0.04514 20:0.233108 21:-0.097162 22:-0.102187 
0.7146672129158655 10:1 11:0.226353 12:0.199524 13:0.105389 14:-0.015742 15:-0.295052 16:0.185921 17:0.082668 18:-0.113925 19:0.137399 20:-0.012204 21:-0.111254 22:-0.121477 
16 1:1 11:0.227506 12:0.199921 13:-0.073628 14:-0.116068 15:0.108351 16:0.100027 17:-0.128404 18:0.062137 19:-0.116183 20:-0.078777 21:0.03651 22:0.214333 
2.229369772487721 5:1 11:0.229319 12:0.199921 13:-0.118982 14:0.173553 15:-0.009288 16:-0.058756 17:0.050864 18:0.214858 19:-0.206641 20:-0.095663 21:-0.064166 22:-0.182619 
3.046003705260675 8:1 11:0.223345 12:0.199921 13:-0.058756 14:0.050864 15:0.214858 16:-0.206641 17:-0.095663 18:-0.064166 19:-0.182619 20:0.026475 21:-0.061519 22:0.087478 
8.553105533277916 4:1 11:0.22054 12:0.199921 13:-0.182619 14:0.026475 15:-0.061519 16:0.087478 17:-0.020821 18:-0.020222 19:0.243267 20:-0.050334 21:-0.146585 22:0.133334 
11.98449027758392 4:1 11:0.223008 12:0.200958 13:0.079457 14:-0.098911 15:0.127443 16:-0.040944 17:-0.058467 18:-0.037745 19:0.112663 20:-0.127661 21:-0.120642 22:-0.046345 
16 7:1 11:0.220792 12:0.200958 13:-0.040944 14:-0.058467 15:-0.037745 16:0.112663 17:-0.127661 18:-0.120642 19:-0.046345 20:0.099011 21:-0.183192 22:0.128528 
6.318638445856678 1:1 11:0.220571 12:0.200561 13:-0.087366 14:-0.108971 15:0.115838 16:-0.122413 17:-0.106456 18:0.156698 19:-0.100202 20:-0.099662 21:-0.04497 22:0.243481 
2.822331864670759 4:1 11:0.216555 12:0.200561 13:-0.122413 14:-0.106456 15:0.156698 16:-0.100202 17:-0.099662 18:-0.04497 19:0.243481 20:-0.186003 21:-0.091066 22:-0.020232 
0.7240893610894722 5:1 11:0.217863 12:0.199371 13:-0.108442 14:0.129506 15:-0.034609 16:-0.053832 17:0.019808 18:0.17472 19:-0.179383 20:-0.11291 21:-0.222646 22:0.022816 
3.344817620630702 3:1 11:0.206372 12:0.198852 13:0.138808 14:-0.152002 15:-0.18147 16:0.159986 17:-0.11987 18:-0.085298 19:-0.037271 20:0.139944 21:-0.019299 22:-0.14401 
4.64584752171002 5:1 11:0.208987 12:0.199524 13:-0.090666 14:0.105027 15:-0.020364 16:-0.105078 17:-0.034803 18:0.104691 19:-0.151468 20:-0.255389 21:-0.078379 22:-0.022762 
3.076697649891345 6:1 11:0.206479 12:0.199524 13:0.105027 14:-0.020364 15:-0.105078 16:-0.034803 17:0.104691 18:-0.151468 19:-0.255389 20:-0.078379 21:-0.022762 22:-0.059567 
16 7:1 11:0.202242 12:0.199524 13:-0.020364 14:-0.105078 15:-0.034803 16:0.104691 17:-0.151468 18:-0.255389 19:-0.078379 20:-0.022762 21:-0.059567 22:0.134699 
16 9:1 11:0.200559 12:0.199524 13:-0.034803 14:0.104691 15:-0.151468 16:-0.255389 17:-0.078379 18:-0.022762 19:-0.059567 20:0.134699 21:-0.003833 22:-0.005103 
2.413037118836029 10:1 11:0.199565 12:0.199524 13:0.104691 14:-0.151468 15:-0.255389 16:-0.078379 17:-0.022762 18:-0.059567 19:0.134699 20:-0.003833 21:-0.005103 22:0.0177 
16 9:1 11:0.200424 12:0.200958 13:-0.011994 14:0.195119 15:-0.092974 16:-0.12875 17:0.100705 18:-0.104 19:-0.062242 20:-0.016857 21:0.015039 22:-0.045351 
5.595938920274041 2:1 11:0.198905 12:0.200958 13:-0.15489 14:0.108219 15:0.036672 16:-0.091748 17:0.112564 18:-0.082223 19:-0.206102 20:-0.04853 21:0.24809 22:-0.191253 
2.942406263303198 3:1 11:0.188537 12:0.201355 13:0.09893 14:-0.163856 15:-0.090069 16:0.132801 17:0.017204 18:-0.149159 19:-0.130496 20:0.210889 21:-0.082905 22:-0.129792 
16 3:1 11:0.183787 12:0.20224 13:0.11638 14:0.052429 15:-0.108205 16:0.014149 17:-0.07468 18:-0.149704 19:0.023768 20:0.233155 21:-0.082676 22:-0.129252 
12.60280351163883 3:1 11:0.184883 12:0.20224 13:0.131645 14:0.036709 15:-0.100024 16:0.094967 17:0.014359 18:-0.158051 19:-0.121211 20:0.172382 21:-0.043358 22:-0.11836 
8.443114127090057 3:1 11:0.183262 12:0.201355 13:-0.050501 14:0.049645 15:-0.05808 16:0.099342 17:0.019425 18:-0.107753 19:0.005682 20:0.224783 21:-0.108603 22:-0.141781 
16 3:1 11:0.1837 12:0.201996 13:0.149431 14:0.044515 15:-0.099799 16:0.099816 17:0.001222 18:-0.149663 19:-0.12331 20:0.187335 21:-0.038128 22:-0.123289 
16 3:1 11:0.179772 12:0.201996 13:0.130967 14:0.052277 15:-0.102178 16:0.016304 17:-0.089557 18:-0.142765 19:0.044407 20:0.24116 21:-0.092571 22:-0.177063 
13.38575265523651 7:1 11:0.18005 12:0.201996 13:-0.089557 14:-0.142765 15:0.044407 16:0.24116 17:-0.092571 18:-0.177063 19:-0.031794 20:0.039272 21:-0.06796 22:0.100588 
6.369490529171705 7:1 11:0.178396 12:0.201996 13:0.032045 14:-0.103924 15:-0.001693 16:0.227525 17:-0.089783 18:-0.202172 19:-0.008559 20:0.016287 21:-0.034647 22:0.092527 
3.255312425328477 7:1 11:0.174715 12:0.206299 13:0.076844 14:-0.036045 15:0.029142 16:0.267547 17:-0.071221 18:-0.164556 19:-0.005725 20:0.089928 21:-0.052308 22:0.109545 
16 7:1 11:0.193221 12:0.207214 13:-0.001259 14:-0.068209 15:0.068479 16:0.228573 17:-0.115984 18:-0.131925 19:-0.031028 20:0.047286 21:-0.132889 22:0.107365 
10.07851329099936 9:1 11:0.193494 12:0.207214 13:0.068479 14:0.228573 15:-0.115984 16:-0.131925 17:-0.031028 18:0.047286 19:-0.132889 20:0.107365 21:-0.086199 22:-0.065133 
4.690328479353828 3:1 11:0.190527 12:0.207214 13:-0.031028 14:0.047286 15:-0.132889 16:0.107365 17:-0.086199 18:-0.065133 19:-0.060592 20:0.146627 21:-0.125374 22:-0.098711 
16 5:1 11:0.191973 12:0.207214 13:-0.132889 14:0.107365 15:-0.086199 16:-0.065133 17:-0.060592 18:0.146627 19:-0.125374 20:-0.098711 21:0.022112 22:0.123393 
5.244741300778965 2:1 11:0.192909 12:0.207733 13:-0.12003 14:0.201667 15:0.065827 16:-0.077428 17:0.105006 18:-0.059795 19:-0.157889 20:-0.018529 21:0.263484 22:-0.05162 
3.580768148591088 5:1 11:0.202539 12:0.206543 13:-0.051353 14:0.106959 15:-0.030862 16:-0.004911 17:0.001702 18:0.210366 19:-0.200849 20:-0.092783 21:0.008627 22:0.128085 
16 3:1 11:0.196403 12:0.206818 13:-0.031981 14:0.058235 15:-0.051474 16:0.031759 17:-0.052503 18:-0.171524 19:-0.046074 20:0.224522 21:-0.059962 22:-0.116758 
6.016996963182005 10:1 11:0.194062 12:0.206024 13:0.251705 14:-0.18526 15:-0.174105 16:-0.186988 17:-0.037814 18:-0.019199 19:0.135099 20:0.039034 21:-0.050287 22:0.058067 
16 2:1 11:0.208606 12:0.204987 13:-0.114834 14:0.116365 15:0.056058 16:-0.187946 17:0.12214 18:-0.172915 19:-0.145969 20:0.033899 21:0.220456 22:-0.044166 
1.146361404395532 1:1 11:0.230293 12:0.201355 13:-0.053562 14:-0.143148 15:0.103181 16:0.094648 17:-0.126262 18:0.048269 19:-0.108202 20:-0.108415 21:0.065335 22:0.207309 
7.423544123249685 8:1 11:0.22955 12:0.20108 13:0.004483 14:0.036493 15:0.152125 16:-0.012768 17:-0.122721 18:0.077 19:0.08877 20:-0.105844 21:0.144452 22:-0.041443 
7.516445622066887 8:1 11:0.237157 12:0.199524 13:-0.013859 14:0.036393 15:0.034687 16:0.023319 17:-0.270044 18:0.145821 19:0.068934 20:-0.23381 21:0.16448 22:-0.160004 
3.744848357255558 9:1 11:0.238272 12:0.199524 13:0.036393 14:0.034687 15:0.023319 16:-0.270044 17:0.145821 18:0.068934 19:-0.23381 20:0.16448 21:-0.160004 22:-0.01648 
1.911378662725137 3:1 11:0.234294 12:0.199524 13:0.145821 14:0.068934 15:-0.23381 16:0.16448 17:-0.160004 18:-0.01648 19:0.018818 20:0.21709 21:-0.056864 22:-0.142338 
2.906503404819532 3:1 11:0.232344 12:0.197571 13:-0.07912 14:0.08373 15:-0.192756 16:0.067149 17:-0.20969 18:-0.042671 19:0.051059 20:0.2074 21:-0.059718 22:-0.124187 
1.247390219381907 5:1 11:0.235772 12:0.197937 13:0.051331 14:-0.056558 15:0.019983 16:-0.019163 17:-0.004393 18:0.239041 19:-0.209392 20:-0.094119 21:-0.004435 22:0.132703 
16 4:1 11:0.228917 12:0.197937 13:0.132703 14:-0.088747 15:0.098452 16:-0.050351 17:-0.13002 18:-0.076643 19:0.27516 20:-0.065369 21:-0.117452 22:0.121136 
15.23088828096915 5:1 11:0.232727 12:0.197937 13:-0.120939 14:0.1308 15:-0.012235 16:-0.10131 17:-0.103299 18:0.150185 19:-0.024377 20:-0.097023 21:0.10656 22:-0.07439 
6.301783166948963 2:1 11:0.234608 12:0.198486 13:-0.13375 14:0.098685 15:-0.09641 16:0.034357 17:-0.053813 18:-0.062398 19:-0.089895 20:-0.103714 21:0.321261 22:-0.086277 
0.3566087253570992 5:1 11:0.236679 12:0.199005 13:-0.100955 14:0.152555 15:-0.062546 16:-0.022502 17:0.024648 18:0.054981 19:-0.009511 20:-0.256671 21:0.153946 22:0.071726 
5.50970249659189 8:1 11:0.228182 12:0.199005 13:-0.189741 14:-0.027732 15:0.142011 16:-0.138603 17:-0.248055 18:0.024734 19:0.181526 20:-0.21579 21:0.100133 22:-0.165806 
16 10:1 11:0.231542 12:0.194824 13:0.159584 14:0.00212 15:-0.164831 16:0.10381 17:-0.030846 18:-0.079995 19:-0.021478 20:-0.120057 21:-0.143329 22:-0.090065 
16 2:1 11:0.229243 12:0.194824 13:-0.164831 14:0.10381 15:-0.030846 16:-0.079995 17:-0.021478 18:-0.120057 19:-0.143329 20:-0.090065 21:0.232019 22:-0.189312 
16 3:1 11:0.22691 12:0.194824 13:0.10381 14:-0.030846 15:-0.079995 16:-0.021478 17:-0.120057 18:-0.143329 19:-0.090065 20:0.232019 21:-0.189312 22:-0.098575 
12.99949178415669 4:1 11:0.219982 12:0.194824 13:0.033658 14:0.001189 15:-0.107536 16:0.070905 17:-0.101113 18:-0.12251 19:0.097432 20:-0.104199 21:-0.128337 22:0.135238 
5.6259401134161 9:1 11:0.211496 12:0.196899 13:-0.016535 14:0.07616 15:-0.055549 16:-0.282743 17:0.152695 18:-0.07176 19:-0.088207 20:-0.008169 21:0.054566 22:-0.07783 
8.709793966895054 9:1 11:0.211222 12:0.195984 13:-0.032354 14:0.224595 15:-0.083179 16:-0.123073 17:0.091282 18:0.025532 19:-0.121294 20:0.130388 21:-0.020403 22:-0.102788 
2.17583120816089 4:1 11:0.208846 12:0.195984 13:0.025532 14:-0.121294 15:0.130388 16:-0.020403 17:-0.102788 18:-0.029567 19:0.083067 20:-0.124271 21:-0.135906 22:-0.051977 
16 7:1 11:0.205916 12:0.195984 13:-0.020403 14:-0.102788 15:-0.029567 16:0.083067 17:-0.124271 18:-0.135906 19:-0.051977 20:0.039372 21:-0.076388 22:0.109258 
0.6328736194540552 9:1 11:0.205708 12:0.195984 13:-0.029567 14:0.083067 15:-0.124271 16:-0.135906 17:-0.051977 18:0.039372 19:-0.076388 20:0.109258 21:-0.03398 22:-0.049201 
16 9:1 11:0.199076 12:0.201202 13:-0.014549 14:0.189074 15:-0.095501 16:-0.133772 17:0.095033 18:-0.098112 19:-0.046012 20:-0.024959 21:0.01497 22:-0.042457 
4.847188743761666 9:1 11:0.197463 12:0.201202 13:-0.022228 14:0.20111 15:-0.054639 16:-0.138564 17:0.118937 18:-0.102944 19:-0.067297 20:-0.094436 21:-0.059911 22:-0.068266 
0.893890536254918 5:1 11:0.1861 12:0.202515 13:-0.086987 14:0.068816 15:-0.071953 16:-0.139075 17:0.039304 18:0.123445 19:-0.188781 20:-0.238653 21:0.052948 22:0.139512 
10.51681918304772 3:1 11:0.181864 12:0.203674 13:0.149305 14:0.047109 15:-0.060836 16:0.037306 17:-0.071725 18:-0.141056 19:0.072835 20:0.128302 21:-0.058933 22:-0.242018 
14.951756523156 2:1 11:0.181445 12:0.204865 13:-0.242042 14:0.05562 15:0.168326 16:-0.174031 17:0.077994 18:-0.055749 19:-0.044861 20:0.095902 21:0.211114 22:-0.082375 
8.06947011609995 7:1 11:0.205552 12:0.205505 13:-0.03122 14:-0.016343 15:0.031172 16:0.211596 17:-0.085507 18:-0.141306 19:-0.038236 20:-0.069651 21:-5.9e-05 22:-0.016703 
16 9:1 11:0.20376 12:0.205505 13:0.031172 14:0.211596 15:-0.085507 16:-0.141306 17:-0.038236 18:-0.069651 19:-5.9e-05 20:-0.016703 21:0.039896 22:0.005633 
6.809335827435297 1:1 11:0.202667 12:0.204346 13:-0.022113 14:-0.262892 15:0.190757 16:0.03937 17:-0.225437 18:0.091778 19:-0.028316 20:-0.154069 21:-0.03601 22:0.291893 
12.77603555863621 4:1 11:0.199031 12:0.204346 13:0.03937 14:-0.225437 15:0.091778 16:-0.028316 17:-0.154069 18:-0.03601 19:0.291893 20:-0.049402 21:-0.13702 22:0.138856 
1.816607516208274 5:1 11:0.225555 12:0.202911 13:-0.199694 14:0.147956 15:-0.150376 16:-0.003937 17:0.025072 18:0.075745 19:-0.113503 20:-0.260412 21:0.004891 22:-0.138405 
7.281125872849752 3:1 11:0.234151 12:0.200439 13:-0.034038 14:0.142139 15:-0.11852 16:0.125776 17:0.005472 18:-0.113808 19:-0.115734 20:0.186301 21:-0.024327 22:-0.123994 
11.45845029991621 1:1 11:0.232569 12:0.200439 13:-0.024327 14:-0.123994 15:0.1011 16:-0.104191 17:-0.097475 18:0.080805 19:-0.114593 20:-0.082994 21:0.097465 22:0.22082 
7.192556007870707 3:1 11:0.227475 12:0.199646 13:-0.100416 14:-0.084987 15:-0.070667 16:0.160691 17:-0.015107 18:-0.088306 19:-0.107477 20:0.211899 21:-0.062127 22:-0.142327 
16 2:1 11:0.229101 12:0.199646 13:-0.142327 14:0.137434 15:0.123394 16:-0.105662 17:0.097462 18:-0.052947 19:-0.16635 20:-0.02965 21:0.235212 22:-0.050568 
5.540986008512639 2:1 11:0.225003 12:0.199371 13:-0.28332 14:0.157005 15:-0.035367 16:-0.041773 17:-0.010159 18:0.013719 19:-0.026993 20:0.027914 21:0.081675 22:-0.027379 
16 3:1 11:0.234246 12:0.200043 13:0.074716 14:0.107064 15:-0.115744 16:0.129029 17:-0.053675 18:-0.099067 19:-0.101175 20:0.189415 21:-0.053777 22:-0.100493 
16 9:1 11:0.229247 12:0.19873 13:0.001413 14:0.203954 15:-0.062606 16:-0.164918 17:-0.071645 18:-0.09129 19:0.04792 20:-0.053486 21:0.043076 22:-0.088569 
6.186034511946464 8:1 11:0.23754 12:0.200043 13:-0.100348 14:0.054184 15:0.204917 16:-0.182571 17:-0.095636 18:-0.037603 19:0.172871 20:-0.11659 21:0.100698 22:-0.054038 
16 1:1 11:0.243063 12:0.200287 13:-0.066117 14:-0.122941 15:0.108351 16:0.081204 17:-0.126087 18:0.140483 19:-0.129288 20:-0.103606 21:-0.058549 22:0.264183 
4.12204475120362 10:1 11:0.235295 12:0.200043 13:-0.04823 14:-0.074573 15:-0.227271 16:0.201245 17:0.077711 18:-0.118844 19:0.167837 20:-0.056785 21:-0.04039 22:0.036398 
5.23695153505048 9:1 11:0.234646 12:0.200043 13:0.036398 14:0.081877 15:-0.033153 16:-0.275086 17:0.166072 18:-0.087132 19:-0.118255 20:-0.015595 21:-0.082444 22:-0.001549 
2.010054683620767 5:1 11:0.23644 12:0.199524 13:-0.086409 14:0.126364 15:-0.018202 16:-0.108305 17:-0.122049 18:0.186885 19:-0.162734 20:-0.088547 21:-0.030872 22:0.188679 
15.77682920617733 1:1 11:0.233235 12:0.199524 13:-0.162734 14:-0.088547 15:-0.030872 16:0.188679 17:-0.118323 18:0.013735 19:-0.070874 20:-0.100839 21:0.065561 22:0.221157 
16 5:1 11:0.236584 12:0.200287 13:-0.11009 14:0.111686 15:-0.000403 16:-0.117289 17:-0.113389 18:0.1694 19:-0.159835 20:-0.082727 21:-0.013354 22:0.177126 
0.68858533426108 10:1 11:0.236059 12:0.199249 13:0.079004 14:-0.024257 15:-0.269473 16:0.183993 17:0.065963 18:-0.116059 19:0.141464 20:-0.01525 21:-0.070173 22:0.045266 
8.07970857459955 2:1 11:0.24132 12:0.200806 13:-0.123199 14:0.117537 15:-0.071292 16:0.017231 17:-0.06603 18:0.038561 19:-0.035108 20:0.048287 21:0.260386 22:-0.08143 
4.422929588729319 6:1 11:0.297015 12:0.280365 13:0.179064 14:0.042309 15:-0.130116 16:-0.178983 17:0.227621 18:-0.132107 19:-0.223609 20:0.12616 21:0.15794 22:-0.122991 
13.05711114751842 3:1 11:0.372361 12:0.280243 13:0.136781 14:0.175435 15:0.037754 16:-0.023772 17:-0.074434 18:-0.281418 19:-0.055374 20:0.312152 21:-0.056399 22:-0.17554 
0.2832562788202777 1:1 11:0.41215 12:0.275543 13:-0.206387 14:-0.126698 15:0.100961 16:0.342455 17:-0.233074 18:0.192584 19:-0.022072 20:-0.04801 21:0.040438 22:0.369951 
1.603170061679272 10:1 11:0.430836 12:0.269806 13:0.213554 14:-0.053564 15:-0.421393 16:0.325221 17:0.062678 18:0.205328 19:-0.02613 20:0.083033 21:-0.07442 22:0.021607 
1.645548362579649 3:1 11:0.430591 12:0.269806 13:0.325221 14:0.062678 15:0.205328 16:-0.02613 17:0.083033 18:-0.07442 19:0.021607 20:0.525592 21:-0.252934 22:-0.077968 
0.1000034085644316 9:1 11:0.462765 12:0.269806 13:0.092431 14:0.429635 15:-0.16281 16:-0.205082 17:-0.081786 18:0.068105 19:0.056621 20:-0.156871 21:0.040398 22:-0.159439 
9.31489003141205 2:1 11:0.461947 12:0.269806 13:-0.205082 14:-0.081786 15:0.068105 16:0.056621 17:-0.156871 18:0.040398 19:-0.159439 20:0.058328 21:0.546428 22:-0.231706 
0.5351826613381858 4:1 11:0.480059 12:0.292114 13:0.600223 14:-0.313086 15:0.313862 16:-0.084373 17:0.147155 18:-0.063149 19:0.339654 20:-0.080098 21:-0.435153 22:0.304253 
0.8419057065168586 4:1 11:0.521445 12:0.302399 13:0.63029 14:-0.342217 15:0.328341 16:-0.057451 17:0.11245 18:-0.024216 19:0.605882 20:-0.25571 21:-0.013412 22:0.063137 
16 4:1 11:0.5937 12:0.28299 13:0.368283 14:-0.08019 15:0.084822 16:-0.096317 17:-0.105675 18:-0.195933 19:0.408307 20:-0.348141 21:0.018457 22:-0.02258 
7.315091297123485 3:1 11:0.59991 12:0.28299 13:-0.214769 14:0.299629 15:-0.016424 16:-0.00426 17:0.006011 18:-0.061768 19:-0.185079 20:0.443745 21:-0.248144 22:-0.026078 
16 5:1 11:0.60612 12:0.258209 13:-0.119219 14:-0.151947 15:0.141259 16:-0.09438 17:0.037913 18:0.305627 19:-0.287871 20:-0.006801 21:-0.119914 22:0.307747 
5.629972954615921 8:1 11:0.60095 12:0.258209 13:-0.09438 14:0.037913 15:0.305627 16:-0.287871 17:-0.006801 18:-0.119914 19:0.307747 20:-0.061331 21:0.086507 22:-0.000288 
1.449112391043577 9:1 11:0.606965 12:0.258209 13:-0.020194 14:0.495199 15:-0.263683 16:-0.071644 17:0.014857 18:0.063523 19:0.016253 20:-0.249629 21:0.155059 22:-0.133898 
8.20052297097739 2:1 11:0.605989 12:0.258209 13:-0.071644 14:0.014857 15:0.063523 16:0.016253 17:-0.249629 18:0.155059 19:-0.133898 20:0.037763 21:0.184039 22:-0.029597 
5.934236942595172 4:1 11:0.604793 12:0.258209 13:0.063523 14:0.016253 15:-0.249629 16:0.155059 17:-0.133898 18:0.037763 19:0.184039 20:-0.029597 21:-0.278589 22:0.021439 
0.245295780899135 8:1 11:0.603518 12:0.258209 13:-0.133898 14:0.037763 15:0.184039 16:-0.029597 17:-0.278589 18:0.021439 19:0.302411 20:-0.016111 21:-0.036083 22:0.012748 
0.1044857532597921 1:1 11:0.606638 12:0.258209 13:-0.029597 14:-0.278589 15:0.021439 16:0.302411 17:-0.016111 18:-0.036083 19:0.012748 20:0.02129 21:-0.027116 22:0.419461 
6.516530595768749 9:1 11:0.60874 12:0.258209 13:-0.027116 14:0.419461 15:-0.420329 16:0.058241 17:-0.186155 18:0.29014 19:-0.087403 20:0.093983 21:-0.032772 22:-0.128225 
9.420547588616678 3:1 11:0.606819 12:0.248291 13:-0.186155 14:0.29014 15:-0.087403 16:0.093983 17:-0.032772 18:-0.128225 19:-0.188371 20:0.482634 21:-0.477526 22:0.064426 
16 3:1 11:0.605771 12:0.248291 13:-0.030797 14:0.271686 15:-0.01594 16:-0.120782 17:-0.058878 18:-0.23854 19:-0.117097 20:0.365377 21:-0.334332 22:-0.013228 
8.077455115509233 3:1 11:0.603518 12:0.248291 13:-0.004092 14:0.307525 15:0.074 16:-0.068456 17:0.051449 18:-0.120695 19:-0.16759 20:0.343794 21:-0.255521 22:-0.013249 
0.2714164901190432 5:1 11:0.605717 12:0.248291 13:0.074 14:-0.068456 15:0.051449 16:-0.120695 17:-0.16759 18:0.343794 19:-0.255521 20:-0.013249 21:-0.062107 22:0.340293 
10.79504100553264 9:1 11:0.606724 12:0.248291 13:-0.02674 14:0.45667 15:-0.315597 16:-0.058632 17:0.001922 18:0.089396 19:-0.029074 20:-0.171904 21:0.142123 22:-0.056352 
6.26139843545194 5:1 11:0.61316 12:0.239044 13:-0.055131 14:0.003667 15:-0.01978 16:-0.117042 17:-0.139192 18:0.154021 19:-0.081759 20:-0.216028 21:-0.017941 22:0.096042 
11.14247833427921 9:1 11:0.610438 12:0.239044 13:-0.139192 14:0.154021 15:-0.081759 16:-0.216028 17:-0.017941 18:0.096042 19:0.029671 20:-0.205423 21:0.130257 22:-0.031026 
2.586004685483113 8:1 11:0.609163 12:0.239044 13:-0.031026 14:-0.040543 15:0.368959 16:-0.251948 17:0.026042 18:-0.128989 19:0.122088 20:-0.185039 21:0.048549 22:-0.130408 
3.630409993055992 10:1 11:0.608379 12:0.239044 13:0.368959 14:-0.251948 15:0.026042 16:-0.128989 17:0.122088 18:-0.185039 19:0.048549 20:-0.130408 21:-0.037167 22:-0.014152 
16 7:1 11:0.608899 12:0.239044 13:-0.130408 14:-0.037167 15:-0.014152 16:0.452149 17:-0.368652 18:0.091 19:-0.141378 20:0.186839 21:-0.152322 22:0.093965 
3.74712857481287 4:1 11:0.607046 12:0.239044 13:0.186839 14:-0.152322 15:0.093965 16:-0.000197 17:-0.089377 18:-0.046626 19:0.367467 20:-0.173056 21:-0.097963 22:0.001702 
13.4674849377993 3:1 11:0.607061 12:0.234985 13:-0.050832 14:0.056963 15:-0.022438 16:-0.127312 17:-0.039312 18:-0.15438 19:-0.014166 20:0.393451 21:-0.218722 22:-0.032777 
0.04555700826469897 8:1 11:0.610945 12:0.234985 13:-0.070525 14:-0.014763 15:0.324261 16:-0.16063 17:-0.098462 18:-0.04432 19:0.233523 20:0.010444 21:-0.022684 22:-0.026366 
4.231387178911468 9:1 11:0.614006 12:0.234985 13:-0.080562 14:0.430971 15:-0.227127 16:-0.118549 17:-0.182193 18:0.227047 19:0.023582 20:-0.009525 21:0.013149 22:-0.156366 
3.469837974115927 8:1 11:0.611188 12:0.234985 13:-0.156366 14:-0.145483 15:0.324205 16:-0.180282 17:-0.013212 18:-0.083693 19:0.25984 20:-0.0092 21:-0.022676 22:-3.9e-05 
2.30773240166927 7:1 11:0.616875 12:0.233429 13:0.046342 14:-0.065028 15:-0.081344 16:0.453342 17:-0.333938 18:0.019886 19:-0.137555 20:0.400265 21:-0.161132 22:0.010695 
2.117811827467822 2:1 11:0.61712 12:0.233429 13:0.019886 14:-0.137555 15:0.400265 16:-0.161132 17:0.010695 18:-0.092716 19:-0.091474 20:-0.140345 21:0.412734 22:-0.207817 
3.336109744039063 9:1 11:0.618163 12:0.233429 13:-0.140345 14:0.412734 15:-0.207817 16:-0.046245 17:-0.051699 18:0.208517 19:0.017485 20:-0.015792 21:-0.092698 22:-0.098062 
10.19135779233222 4:1 11:0.617509 12:0.233429 13:0.254794 14:-0.022173 15:-0.035667 16:0.086384 17:-0.118447 18:-0.009221 19:0.3822 20:-0.235194 21:-0.04641 22:-0.111732 
6.256213852235478 2:1 11:0.615404 12:0.233429 13:-0.04641 14:-0.111732 15:0.175857 16:-0.174225 17:-0.154548 18:-0.006593 19:-0.097608 20:0.043747 21:0.36014 22:-0.187939 
16 3:1 11:0.615908 12:0.233307 13:0.007711 14:0.268172 15:-0.127952 16:0.010639 17:-0.152164 18:-0.005487 19:-0.087832 20:0.426497 21:-0.254337 22:-0.06609 
4.434104973281677 6:1 11:0.616956 12:0.233307 13:0.010639 14:-0.152164 15:-0.005487 16:-0.087832 17:0.426497 18:-0.254337 19:-0.06609 20:-0.005514 21:0.221876 22:0.070548 
3.860575688942497 10:1 11:0.619689 12:0.233307 13:0.426497 14:-0.254337 15:-0.06609 16:-0.005514 17:0.221876 18:0.070548 19:-0.128482 20:0.119656 21:-0.171559 22:-0.147502 
1.573311239586926 5:1 11:0.617316 12:0.233307 13:0.070548 14:-0.128482 15:0.119656 16:-0.171559 17:-0.147502 18:0.13582 19:-0.101753 20:-0.230653 21:-0.057735 22:0.089674 
0.7933410398388774 8:1 11:0.612487 12:0.233307 13:-0.171559 14:-0.147502 15:0.13582 16:-0.101753 17:-0.230653 18:-0.057735 19:0.089674 20:-0.002702 21:-0.127655 22:0.032713 
4.919649796670507 5:1 11:0.613892 12:0.233307 13:0.063103 14:-0.383519 15:0.091559 16:-0.201065 17:0.05697 18:0.310707 19:-0.317362 20:-0.006688 21:-0.128708 22:0.27186 
6.00952189454633 4:1 11:0.609791 12:0.233307 13:0.27186 14:-0.055058 15:0.094912 16:-0.032866 17:-0.063979 18:-0.092904 19:0.140438 20:-0.166524 21:-0.228037 22:-0.004644 
9.845783110723348 9:1 11:0.608094 12:0.233307 13:-0.092904 14:0.140438 15:-0.166524 16:-0.228037 17:-0.004644 18:0.121839 19:0.003386 20:-0.288742 21:-0.019708 22:-0.268299 
16 2:1 11:0.604296 12:0.233307 13:-0.228037 14:-0.004644 15:0.121839 16:0.003386 17:-0.288742 18:-0.019708 19:-0.268299 20:-0.089907 21:0.201198 22:-0.190253 
15.86795806257547 4:1 11:0.599826 12:0.233307 13:0.121839 14:0.003386 15:-0.288742 16:-0.019708 17:-0.268299 18:-0.089907 19:0.201198 20:-0.190253 21:-0.013254 22:-0.010434 
13.65362686944248 4:1 11:0.597354 12:0.233307 13:0.146762 14:0.028465 15:-0.209318 16:0.070053 17:-0.131976 18:-0.089184 19:0.443535 20:-0.209637 21:-0.038892 22:-0.061604 
1.737613938710328 2:1 11:0.600521 12:0.233307 13:-0.038892 14:-0.061604 15:0.300444 16:-0.054833 17:0.021608 18:-0.148269 19:-0.080949 20:-0.191228 21:0.142531 22:-0.221195 
13.19884752135369 3:1 11:0.594488 12:0.233826 13:-0.213516 14:0.323981 15:-0.029265 16:-0.08103 17:-0.076988 18:-0.143411 19:-0.024894 20:0.249474 21:-0.163598 22:-0.222441 
3.426794277082116 1:1 11:0.603094 12:0.233826 13:-0.164936 14:-0.071105 15:-0.055419 16:0.275249 17:-0.074137 18:0.028154 19:-0.077687 20:0.060105 21:-0.116104 22:0.518537 
2.506551310224648 4:1 11:0.599666 12:0.233826 13:0.07642 14:-0.054858 15:-0.113368 16:0.0382 17:-0.202976 18:0.025274 19:0.201138 20:-0.171 21:-0.051707 22:-0.023181 
3.629992793960271 10:1 11:0.598262 12:0.234589 13:0.201138 14:-0.171 15:-0.051707 16:-0.023181 17:-0.089375 18:0.021646 19:-0.21464 20:-0.006914 21:-0.225317 22:-0.062336 
0.458642676510738 2:1 11:0.595488 12:0.234589 13:-0.051707 14:-0.023181 15:-0.089375 16:0.021646 17:-0.21464 18:-0.006914 19:-0.225317 20:-0.062336 21:0.241879 22:-0.232565 
5.332248072276413 3:1 11:0.592663 12:0.234589 13:-0.023181 14:-0.089375 15:0.021646 16:-0.21464 17:-0.006914 18:-0.225317 19:-0.062336 20:0.241879 21:-0.232565 22:-0.057474 
3.914997318333868 4:1 11:0.591879 12:0.234589 13:-0.089375 14:0.021646 15:-0.21464 16:-0.006914 17:-0.225317 18:-0.062336 19:0.241879 20:-0.232565 21:-0.057474 22:-0.179313 
4.252038344753061 7:1 11:0.591278 12:0.234589 13:-0.006914 14:-0.225317 15:-0.062336 16:0.241879 17:-0.232565 18:-0.057474 19:-0.179313 20:0.302414 21:-0.048279 22:0.045469 
1.166377312704723 5:1 11:0.597784 12:0.234589 13:-0.123991 14:0.102491 15:-0.032284 16:-0.04141 17:-0.005726 18:0.39486 19:-0.246236 20:-0.00691 21:-0.041597 22:0.139593 
3.392998913574248 3:1 11:0.59013 12:0.234589 13:0.040853 14:0.076204 15:0.165604 16:-0.332375 17:0.206976 18:-0.097682 19:0.019722 20:0.159108 21:-0.244277 22:0.011859 
0.1855279548400134 4:1 11:0.590378 12:0.234589 13:0.076204 14:0.165604 15:-0.332375 16:0.206976 17:-0.097682 18:0.019722 19:0.159108 20:-0.244277 21:0.011859 22:-0.072137 
7.75822507048364 7:1 11:0.589458 12:0.234589 13:0.206976 14:-0.097682 15:0.019722 16:0.159108 17:-0.244277 18:0.011859 19:-0.072137 20:0.346295 21:-0.174086 22:0.133515 
16 1:1 11:0.592396 12:0.234589 13:-0.244277 14:0.011859 15:-0.072137 16:0.346295 17:-0.174086 18:0.133515 19:-0.057501 20:-0.003305 21:-0.018107 22:0.419051 
5.377758584883381 10:1 11:0.593965 12:0.234589 13:0.419051 14:-0.239488 15:-0.063931 16:-0.016044 17:0.177335 18:-0.073601 19:-0.225951 20:-0.038501 21:-0.216629 22:-0.135907 
13.78358383822339 3:1 11:0.58792 12:0.234589 13:-0.016044 14:0.177335 15:-0.073601 16:-0.225951 17:-0.038501 18:-0.216629 19:-0.135907 20:0.389417 21:-0.206232 22:-0.019563 
16 4:1 11:0.586206 12:0.234589 13:0.177335 14:-0.073601 15:-0.225951 16:-0.038501 17:-0.216629 18:-0.135907 19:0.389417 20:-0.206232 21:-0.019563 22:0.003246 
1.450688416818305 2:1 11:0.588747 12:0.234589 13:-0.019563 14:0.003246 15:0.25178 16:-0.129849 17:-0.01783 18:-0.069839 19:-0.065717 20:-0.011273 21:0.397002 22:-0.300932 
0.2663501915968758 9:1 11:0.592354 12:0.235626 13:-0.011884 14:0.216522 15:-0.093485 16:-0.322403 17:0.053435 18:0.189363 19:0.096676 20:-0.150222 21:0.075183 22:-0.129531 
11.85919368806534 5:1 11:0.593648 12:0.235626 13:0.096676 14:-0.150222 15:0.075183 16:-0.129531 17:-0.074466 18:0.28509 19:-0.194361 20:-0.019583 21:-0.066158 22:0.170514 
13.36279079046729 10:1 11:0.590639 12:0.235626 13:0.28509 14:-0.194361 15:-0.019583 16:-0.066158 17:0.170514 18:-0.129992 19:-0.193568 20:-0.057169 21:-0.221308 22:-0.07278 
16 2:1 11:0.587485 12:0.235626 13:-0.019583 14:-0.066158 15:0.170514 16:-0.129992 17:-0.193568 18:-0.057169 19:-0.221308 20:-0.07278 21:0.349913 22:-0.143001 
5.715687994324917 4:1 11:0.583776 12:0.235626 13:0.170514 14:-0.129992 15:-0.193568 16:-0.057169 17:-0.221308 18:-0.07278 19:0.349913 20:-0.143001 21:-0.069503 22:-0.04638 
9.323750114610869 10:1 11:0.586541 12:0.235626 13:0.328434 14:-0.395049 15:0.030608 16:-0.209266 17:0.207133 18:-0.141807 19:-0.148953 20:-0.063106 21:-0.14527 22:-0.127511 
7.890708568927782 10:1 11:0.586855 12:0.238251 13:0.45314 14:-0.211027 15:-0.025743 16:-0.014979 17:0.287275 18:0.020304 19:-0.099152 20:0.099169 21:-0.108974 22:0.038803 
16 4:1 11:0.578316 12:0.238251 13:0.007847 14:-0.023377 15:-0.21042 16:0.036243 17:-0.237001 18:-0.046756 19:0.234704 20:-0.221892 21:0.017475 22:-0.026801 
2.207332291940022 7:1 11:0.578703 12:0.238251 13:0.036243 14:-0.237001 15:-0.046756 16:0.234704 17:-0.221892 18:0.017475 19:-0.026801 20:0.328581 21:-0.196113 22:0.024694 
1.140471502587927 7:1 11:0.583709 12:0.238251 13:0.073675 14:-0.101872 15:-0.010449 16:0.436085 17:-0.30481 18:-0.013301 19:-0.064684 20:0.349542 21:-0.08558 22:-0.005616 
7.799119675067822 2:1 11:0.585831 12:0.238495 13:-0.013295 14:-0.11005 15:-0.011489 16:-0.060745 17:-0.26154 18:0.061577 19:-0.325809 20:-0.016541 21:0.261215 22:-0.105198 
4.93909035079247 5:1 11:0.584813 12:0.238495 13:-0.060745 14:-0.26154 15:0.061577 16:-0.325809 17:-0.016541 18:0.261215 19:-0.105198 20:-0.050578 21:-0.021149 22:0.231142 
16 2:1 11:0.582847 12:0.238495 13:-0.050578 14:-0.021149 15:0.231142 16:-0.023341 17:-0.198342 18:0.011526 19:-0.163444 20:-0.034859 21:0.322539 22:-0.136169 
1.276316655159452 4:1 11:0.58034 12:0.238495 13:0.231142 14:-0.023341 15:-0.198342 16:0.011526 17:-0.163444 18:-0.034859 19:0.322539 20:-0.136169 21:-0.093898 22:0.040883 
5.144674889260791 3:1 11:0.582971 12:0.238495 13:0.040883 14:0.168938 15:0.032447 16:-0.067923 17:0.005354 18:-0.0647 19:-0.035281 20:0.448876 21:-0.27391 22:-0.044437 
0.2001713036310113 9:1 11:0.586442 12:0.238495 13:-0.067138 14:0.263773 15:-0.286839 16:0.042903 17:-0.108789 18:0.125908 19:-0.079321 20:-0.247989 21:-0.025724 22:-0.193932 
16 10:1 11:0.585441 12:0.238495 13:0.263773 14:-0.286839 15:0.042903 16:-0.108789 17:0.125908 18:-0.079321 19:-0.247989 20:-0.025724 21:-0.193932 22:-0.077562 
16 4:1 11:0.585186 12:0.238495 13:0.318427 14:-0.029529 15:-0.043021 16:0.08049 17:-0.077854 18:-0.073154 19:0.219573 20:-0.298705 21:0.017822 22:-0.071044 
10.52700350684738 9:1 11:0.588644 12:0.238495 13:0.038769 14:0.377228 15:-0.206325 16:-0.151178 17:0.065883 18:0.069927 19:-0.098184 20:-0.198953 21:-0.112887 22:-0.16987 
0.4439455473602205 5:1 11:0.584029 12:0.238495 13:-0.098184 14:-0.198953 15:-0.112887 16:-0.16987 17:-0.133415 18:0.346862 19:-0.204206 20:0.042441 21:-0.095214 22:0.187252 
0.6663472561448511 7:1 11:0.582925 12:0.238495 13:0.209782 14:-0.15742 15:0.119314 16:0.280609 17:-0.167564 18:-0.10033 19:-0.262213 20:0.316824 21:-0.122378 22:0.074603 
14.14329446330458 5:1 11:0.588036 12:0.238129 13:-0.017003 14:-0.068016 15:0.030527 16:-0.152794 17:-0.135009 18:0.331234 19:-0.416726 20:0.092334 21:-0.188622 22:0.373706 
0.4216021482480166 8:1 11:0.581563 12:0.238129 13:-0.152794 14:-0.135009 15:0.331234 16:-0.416726 17:0.092334 18:-0.188622 19:0.373706 20:-0.302453 21:0.155478 22:-0.137635 
6.881134437433451 5:1 11:0.589218 12:0.238129 13:-0.066952 14:-0.024259 15:0.024266 16:-0.021686 17:-0.029835 18:0.207752 19:-0.174447 20:-0.219253 21:0.009766 22:0.256657 
5.283440240592965 7:1 11:0.586539 12:0.238129 13:0.042869 14:-0.133577 15:0.026466 16:0.431948 17:-0.274662 18:-0.000801 19:-0.071488 20:0.344756 21:-0.11711 22:0.038508 
2.074386714983051 1:1 11:0.588993 12:0.238129 13:-0.274662 14:-0.000801 15:-0.071488 16:0.344756 17:-0.11711 18:0.038508 19:-0.013292 20:-0.04693 21:0.019892 22:0.378668 
3.27842333147369 8:1 11:0.58666 12:0.237854 13:-0.04693 14:0.019892 15:0.378668 16:-0.388974 17:0.036906 18:-0.172034 19:0.207373 20:-0.229261 21:-0.117803 22:-0.16879 
2.261414736514077 9:1 11:0.589274 12:0.237854 13:0.019892 14:0.378668 15:-0.388974 16:0.036906 17:-0.172034 18:0.207373 19:-0.229261 20:-0.117803 21:-0.16879 22:-0.151065 
16 1:1 11:0.584898 12:0.237854 13:-0.388974 14:0.036906 15:-0.172034 16:0.207373 17:-0.229261 18:-0.117803 19:-0.16879 20:-0.151065 21:-0.102524 22:0.464766 
12.77183142614378 2:1 11:0.582768 12:0.237854 13:0.036906 14:-0.172034 15:0.207373 16:-0.229261 17:-0.117803 18:-0.16879 19:-0.151065 20:-0.102524 21:0.464766 22:-0.433457 
8.077845678808231 10:1 11:0.586305 12:0.237854 13:0.245507 14:-0.168369 15:-0.207106 16:-0.033894 17:0.045041 18:0.06997 19:-0.186207 20:0.030247 21:-0.126846 22:0.113255 
0.2464893612734447 4:1 11:0.592828 12:0.233948 13:0.297143 14:-0.067313 15:0.020517 16:0.024811 17:-0.035281 18:-0.125828 19:0.312194 20:-0.290131 21:-0.032244 22:-0.028672 
16 2:1 11:0.590803 12:0.233948 13:-0.038392 14:0.003246 15:0.239226 16:0.058607 17:-0.074408 18:-0.025893 19:-0.185378 20:0.001124 21:0.328214 22:-0.18779 
15.53172231281273 4:1 11:0.588486 12:0.233948 13:0.239226 14:0.058607 15:-0.074408 16:-0.025893 17:-0.185378 18:0.001124 19:0.328214 20:-0.18779 21:-0.076197 22:-0.021934 
6.344477082761045 6:1 11:0.594063 12:0.233948 13:-0.049206 14:0.068888 15:-0.079158 16:0.02588 17:0.3371 18:-0.182405 19:-0.13357 20:-0.028615 21:0.221458 22:-0.010385 
16 2:1 11:0.585752 12:0.234467 13:-0.081756 14:-0.002618 15:0.218998 16:-0.017086 17:-0.099103 18:0.074019 19:-0.139729 20:0.051292 21:0.350555 22:-0.236861 
0.6966594865782704 7:1 11:0.579327 12:0.234467 13:-0.050604 14:-0.182127 15:-0.108695 16:0.396432 17:-0.315669 18:-0.099755 19:-0.045338 20:0.248464 21:-0.109782 22:-0.123252 
0.8795508424270408 9:1 11:0.580729 12:0.234589 13:-0.065103 14:0.500395 15:-0.352527 16:-0.013318 17:-0.026919 18:0.112958 19:-0.005012 20:-0.326001 21:-0.074603 22:-0.233685 
16 3:1 11:0.572623 12:0.234589 13:-0.026919 14:0.112958 15:-0.005012 16:-0.326001 17:-0.074603 18:-0.233685 19:-0.148265 20:0.395246 21:-0.256624 22:-0.01943 
16 10:1 11:0.57321 12:0.234589 13:0.395246 14:-0.256624 15:-0.01943 16:-0.068451 17:0.160815 18:-0.017651 19:-0.273789 20:0.035117 21:-0.212792 22:-0.00232 
16 2:1 11:0.570173 12:0.234589 13:-0.01943 14:-0.068451 15:0.160815 16:-0.017651 17:-0.273789 18:0.035117 19:-0.212792 20:-0.00232 21:0.404617 22:-0.225154 
16 2:1 11:0.566556 12:0.234589 13:-0.061744 14:-0.019495 15:0.142197 16:-0.047973 17:-0.224283 18:-0.037433 19:-0.240925 20:-0.10893 21:0.382078 22:-0.241279 
13.81814359485529 4:1 11:0.562084 12:0.234589 13:0.142197 14:-0.047973 15:-0.224283 16:-0.037433 17:-0.240925 18:-0.10893 19:0.382078 20:-0.241279 21:-0.085131 22:-0.006846 
9.110106851931134 7:1 11:0.564945 12:0.236816 13:0.016677 14:-0.043037 15:-0.025881 16:0.432257 17:-0.326494 18:-0.067377 19:-0.305548 20:0.36787 21:-0.137527 22:0.022342 
0.01145805906710052 1:1 11:0.564273 12:0.236816 13:-0.326494 14:-0.067377 15:-0.305548 16:0.36787 17:-0.137527 18:0.022342 19:-0.007365 20:-0.048825 21:0.022012 22:0.36543 
12.36242800183484 1:1 11:0.553934 12:0.236816 13:-0.256478 14:-0.007443 15:0.005501 16:0.128654 17:-0.165563 18:-0.178779 19:-0.060325 20:-0.08788 21:-0.110957 22:0.413926 
11.95183893854958 10:1 11:0.54953 12:0.239166 13:0.266215 14:-0.206902 15:-0.205102 16:0.046717 17:0.115927 18:0.039323 19:-0.379365 20:0.003926 21:-0.217834 22:-0.033387 
11.52553074796147 3:1 11:0.541856 12:0.239166 13:0.046717 14:0.115927 15:0.039323 16:-0.379365 17:0.003926 18:-0.217834 19:-0.033387 20:0.40014 21:-0.239736 22:-0.036393 
6.36760472665262 7:1 11:0.546546 12:0.239166 13:0.050215 14:-0.07461 15:0.052284 16:0.403925 17:-0.310904 18:-0.036552 19:-0.074707 20:0.075326 21:-0.099439 22:-0.014915 
12.48977802262741 2:1 11:0.545499 12:0.241119 13:-0.036552 14:-0.074707 15:0.075326 16:-0.099439 17:-0.014915 18:0.032841 19:-0.091747 20:0.081045 21:0.159991 22:-0.107321 
2.28319512844363 5:1 11:0.547433 12:0.241119 13:-0.099439 14:-0.014915 15:0.032841 16:-0.091747 17:0.081045 18:0.159991 19:-0.107321 20:-0.330253 21:0.138559 22:-0.216616 
2.05020177287341 2:1 11:0.540137 12:0.241119 13:-0.330253 14:0.138559 15:-0.216616 16:0.163943 17:-0.375156 18:0.163519 19:-0.266655 20:0.13184 21:0.294415 22:-0.352006 
10.67644519452807 10:1 11:0.537697 12:0.241119 13:0.294415 14:-0.352006 15:-0.013389 16:-0.101041 17:0.273793 18:-0.155406 19:-0.14029 20:-0.075716 21:0.018287 22:-0.11097 
4.885579405675294 1:1 11:0.535871 12:0.241119 13:-0.352006 14:-0.013389 15:-0.101041 16:0.273793 17:-0.155406 18:-0.14029 19:-0.075716 20:0.018287 21:-0.11097 22:0.575891 
7.460513627127188 7:1 11:0.535255 12:0.241119 13:-0.075716 14:0.018287 15:-0.11097 16:0.575891 17:-0.44208 18:-0.013394 19:-0.269376 20:0.379321 21:-0.334751 22:0.147645 
0.1013144835045322 10:1 11:0.532325 12:0.241119 13:0.575891 14:-0.44208 15:-0.013394 16:-0.269376 17:0.379321 18:-0.334751 19:0.147645 20:-0.233224 21:0.052131 22:-0.243772 
3.520391324323457 3:1 11:0.53189 12:0.241119 13:-0.269376 14:0.379321 15:-0.334751 16:0.147645 17:-0.233224 18:0.052131 19:-0.243772 20:0.490819 21:-0.325429 22:0.020316 
0.9966455212520224 5:1 11:0.535116 12:0.241119 13:-0.334751 14:0.147645 15:-0.233224 16:0.052131 17:-0.243772 18:0.490819 19:-0.325429 20:0.020316 21:-0.015247 22:0.361899 
2.301163628896449 3:1 11:0.52984 12:0.241119 13:-0.015247 14:0.361899 15:-0.08126 16:-0.105944 17:-0.030307 18:-0.228744 19:-0.075768 20:0.327585 21:-0.212425 22:-0.10864 
13.19970583355467 3:1 11:0.530718 12:0.241119 13:0.024119 14:0.248496 15:0.014404 16:-0.015792 17:0.009151 18:-0.144605 19:-0.115041 20:0.372878 21:-0.240784 22:-0.086353 
10.11457646585062 10:1 11:0.533646 12:0.248688 13:0.449521 14:-0.293392 15:-0.030363 16:-0.032519 17:-0.003805 18:-0.019253 19:-0.1789 20:0.003455 21:-0.155322 22:-0.092321 
0.8439513398525459 9:1 11:0.537798 12:0.248688 13:0.035611 14:0.422786 15:-0.328092 16:0.009283 17:0.001238 18:0.143082 19:0.020605 20:-0.208323 21:0.196768 22:-0.220117 
4.482730708411634 10:1 11:0.537845 12:0.244507 13:0.246972 14:-0.174475 15:-0.092771 16:0.023928 17:0.188336 18:-0.002088 19:-0.230881 20:0.020581 21:-0.162418 22:-0.003665 
16 2:1 11:0.535107 12:0.244507 13:-0.092771 14:0.023928 15:0.188336 16:-0.002088 17:-0.230881 18:0.020581 19:-0.162418 20:-0.003665 21:0.404283 22:-0.225351 
16 10:1 11:0.537328 12:0.244507 13:0.404283 14:-0.225351 15:-0.0417 16:0.069206 17:0.126038 18:0.003537 19:-0.275864 20:-0.019038 21:-0.122448 22:0.041343 
12.16247410950563 2:1 11:0.533487 12:0.244507 13:-0.0417 14:0.069206 15:0.126038 16:0.003537 17:-0.275864 18:-0.019038 19:-0.122448 20:0.041343 21:0.449248 22:-0.456766 
0.4194756072288226 3:1 11:0.53189 12:0.244507 13:0.069206 14:0.126038 15:0.003537 16:-0.275864 17:-0.019038 18:-0.122448 19:0.041343 20:0.449248 21:-0.456766 22:0.04859 
3.057641170789207 1:1 11:0.535503 12:0.244507 13:-0.456766 14:0.04859 15:-0.099809 16:0.384939 17:-0.182895 18:0.091759 19:-0.03039 20:0.018265 21:-0.054726 22:0.263583 
14.86195536153572 2:1 11:0.539395 12:0.243866 13:0.06651 14:-0.016159 15:0.1836 16:0.009626 17:-0.220898 18:0.032272 19:-0.181147 20:-0.026834 21:0.36753 22:-0.226468 
2.526794366876065 1:1 11:0.539124 12:0.23761 13:-0.221271 14:-0.076225 15:-0.215045 16:0.25108 17:-0.030411 18:-0.003934 19:-0.087503 20:-0.033046 21:-0.015591 22:0.328015 
5.201510252604985 2:1 11:0.537988 12:0.23761 13:-0.076225 14:-0.215045 15:0.25108 16:-0.030411 17:-0.003934 18:-0.087503 19:-0.033046 20:-0.015591 21:0.328015 22:-0.306199 
3.887577361688654 7:1 11:0.536362 12:0.23761 13:-0.087503 14:-0.033046 15:-0.015591 16:0.328015 17:-0.306199 18:-0.098645 19:-0.208056 20:0.170957 21:-0.171428 22:0.001211 
12.50130965123432 5:1 11:0.535779 12:0.23761 13:-0.171428 14:0.001211 15:-0.193654 16:0.108385 17:-0.188356 18:0.435702 19:-0.38753 20:0.048389 21:-0.099368 22:0.209492 
0.3918970789317404 6:1 11:0.530725 12:0.23761 13:0.001211 14:-0.193654 15:0.108385 16:-0.188356 17:0.435702 18:-0.38753 19:0.048389 20:-0.099368 21:0.209492 22:-0.075405 
0.8219454489772198 1:1 11:0.530798 12:0.23761 13:-0.38753 14:0.048389 15:-0.099368 16:0.209492 17:-0.075405 18:-0.077597 19:-0.080725 20:-0.065405 21:-0.058821 22:0.293386 
8.319101836435774 5:1 11:0.531958 12:0.23761 13:-0.075405 14:-0.077597 15:-0.080725 16:-0.065405 17:-0.058821 18:0.293386 19:-0.323726 20:-0.046881 21:-0.109317 22:0.152587 
5.903021874792342 9:1 11:0.527682 12:0.23761 13:-0.058821 14:0.293386 15:-0.323726 16:-0.046881 17:-0.109317 18:0.152587 19:-0.06392 20:-0.116198 21:-0.057823 22:-0.08094 
7.038158767276442 1:1 11:0.525321 12:0.23761 13:-0.323726 14:-0.046881 15:-0.109317 16:0.152587 17:-0.06392 18:-0.116198 19:-0.057823 20:-0.08094 21:-0.035528 22:0.190258 
14.3686558858135 2:1 11:0.524564 12:0.23761 13:-0.046881 14:-0.109317 15:0.152587 16:-0.06392 17:-0.116198 18:-0.057823 19:-0.08094 20:-0.035528 21:0.190258 22:-0.254159 
16 5:1 11:0.525534 12:0.23761 13:-0.06392 14:-0.116198 15:-0.057823 16:-0.08094 17:-0.035528 18:0.190258 19:-0.254159 20:-0.057544 21:-0.080204 22:0.080199 
11.01489894811427 7:1 11:0.514594 12:0.145386 13:-0.035351 14:-0.090506 15:-0.099689 16:0.225509 17:-0.316965 18:-0.03518 19:-0.192276 20:0.128535 21:-0.068626 22:-0.141354 
14.14173656466257 8:1 11:0.512055 12:0.145386 13:-0.090506 14:-0.099689 15:0.225509 16:-0.316965 17:-0.03518 18:-0.192276 19:0.128535 20:-0.068626 21:-0.141354 22:-0.078142 
6.138894642826413 10:1 11:0.512847 12:0.145386 13:0.225509 14:-0.316965 15:-0.03518 16:-0.192276 17:0.128535 18:-0.068626 19:-0.141354 20:-0.078142 21:-0.088272 22:-0.080879 
13.77981270066262 2:1 11:0.509944 12:0.145386 13:-0.03518 14:-0.192276 15:0.128535 16:-0.068626 17:-0.141354 18:-0.078142 19:-0.088272 20:-0.080879 21:0.188823 22:-0.317567 
9.316563940602682 5:1 11:0.510207 12:0.145386 13:-0.068626 14:-0.141354 15:-0.078142 16:-0.088272 17:-0.080879 18:0.188823 19:-0.317567 20:-0.018755 21:-0.167023 22:0.090188 
3.941810962828508 6:1 11:0.505996 12:0.145386 13:-0.141354 14:-0.078142 15:-0.088272 16:-0.080879 17:0.188823 18:-0.317567 19:-0.018755 20:-0.167023 21:0.090188 22:-0.16873 
1.314667842898489 7:1 11:0.505747 12:0.145386 13:-0.078142 14:-0.088272 15:-0.080879 16:0.188823 17:-0.317567 18:-0.018755 19:-0.167023 20:0.090188 21:-0.16873 22:-0.218647 
2.091450006539252 1:1 11:0.499569 12:0.145386 13:-0.317567 14:-0.018755 15:-0.167023 16:0.090188 17:-0.16873 18:-0.218647 19:-0.202929 20:-0.147755 21:-0.165274 22:0.166499 
0.2816981497220176 2:1 11:0.496863 12:0.145386 13:-0.018755 14:-0.167023 15:0.090188 16:-0.16873 17:-0.218647 18:-0.202929 19:-0.147755 20:-0.165274 21:0.166499 22:-0.273183 
8.067675308394989 5:1 11:0.494905 12:0.145386 13:-0.16873 14:-0.218647 15:-0.202929 16:-0.147755 17:-0.165274 18:0.166499 19:-0.273183 20:-0.023782 21:-0.109394 22:0.073853 
1.38738305295028 6:1 11:0.491247 12:0.145386 13:-0.218647 14:-0.202929 15:-0.147755 16:-0.165274 17:0.166499 18:-0.273183 19:-0.023782 20:-0.109394 21:0.073853 22:-0.036225 
3.686347949666449 10:1 11:0.489966 12:0.145386 13:0.166499 14:-0.273183 15:-0.023782 16:-0.109394 17:0.073853 18:-0.036225 19:-0.152658 20:-0.131801 21:-0.005494 22:-0.202062 
0.1138729597203447 1:1 11:0.487916 12:0.145386 13:-0.273183 14:-0.023782 15:-0.109394 16:0.073853 17:-0.036225 18:-0.152658 19:-0.131801 20:-0.005494 21:-0.202062 22:0.234383 
8.187417390154057 4:1 11:0.483347 12:0.11319 13:0.073853 14:-0.036225 15:-0.152658 16:-0.131801 17:-0.005494 18:-0.202062 19:0.234383 20:-0.320358 21:-0.059241 22:-0.162308 
1.777879873627574 8:1 11:0.479201 12:0.11319 13:-0.005494 14:-0.202062 15:0.234383 16:-0.320358 17:-0.059241 18:-0.162308 19:0.012908 20:-0.086633 21:-0.260669 22:-0.158663 
7.521235390970284 9:1 11:0.479375 12:0.11319 13:-0.202062 14:0.234383 15:-0.320358 16:-0.059241 17:-0.162308 18:0.012908 19:-0.086633 20:-0.260669 21:-0.158663 22:-0.168699 
16 10:1 11:0.478202 12:0.11319 13:0.234383 14:-0.320358 15:-0.059241 16:-0.162308 17:0.012908 18:-0.086633 19:-0.260669 20:-0.158663 21:-0.168699 22:-0.169207 
5.565178418663767 3:1 11:0.470229 12:0.11319 13:-0.162308 14:0.012908 15:-0.086633 16:-0.260669 17:-0.158663 18:-0.168699 19:-0.169207 20:0.062541 21:-0.162996 22:-0.161177 
2.220663974468155 5:1 11:0.468776 12:0.11319 13:-0.086633 14:-0.260669 15:-0.158663 16:-0.168699 17:-0.169207 18:0.062541 19:-0.162996 20:-0.161177 21:-0.067435 22:-0.005225 
0.01184668057159402 6:1 11:0.466556 12:0.11319 13:-0.260669 14:-0.158663 15:-0.168699 16:-0.169207 17:0.062541 18:-0.162996 19:-0.161177 20:-0.067435 21:-0.005225 22:0.017585 
3.207615011565067 9:1 11:0.463366 12:0.11319 13:-0.169207 14:0.062541 15:-0.162996 16:-0.161177 17:-0.067435 18:-0.005225 19:0.017585 20:-0.117808 21:-0.101298 22:-0.071493 
16 10:1 11:0.463606 12:0.11319 13:0.062541 14:-0.162996 15:-0.161177 16:-0.067435 17:-0.005225 18:0.017585 19:-0.117808 20:-0.101298 21:-0.071493 22:-0.125727 
1.775488272328174 1:1 11:0.461996 12:0.11319 13:-0.162996 14:-0.161177 15:-0.067435 16:-0.005225 17:0.017585 18:-0.117808 19:-0.101298 20:-0.071493 21:-0.125727 22:0.206127 
7.384816560889834 6:1 11:0.457066 12:0.11319 13:-0.117808 14:-0.101298 15:-0.071493 16:-0.125727 17:0.206127 18:-0.267666 19:-0.119725 20:-0.118437 21:-0.013584 22:0.03092 
1.675566968943854 8:1 11:0.44012 12:0.11319 13:-0.144766 14:-0.125705 15:0.161983 16:-0.223944 17:-0.154504 18:-0.142263 19:-0.030282 20:0.02909 21:-0.188772 22:-0.157137 
4.952214633453681 10:1 11:0.440104 12:0.11319 13:0.161983 14:-0.223944 15:-0.154504 16:-0.142263 17:-0.030282 18:0.02909 19:-0.188772 20:-0.157137 21:-0.070639 22:-0.107303 
14.88727171302956 1:1 11:0.43748 12:0.11319 13:-0.223944 14:-0.154504 15:-0.142263 16:-0.030282 17:0.02909 18:-0.188772 19:-0.157137 20:-0.070639 21:-0.107303 22:0.124774 
2.036170436013964 3:1 11:0.43431 12:0.11319 13:-0.142263 14:-0.030282 15:0.02909 16:-0.188772 17:-0.157137 18:-0.070639 19:-0.107303 20:0.124774 21:-0.214648 22:-0.159924 
8.429347977434988 8:1 11:0.427527 12:0.11319 13:-0.070639 14:-0.107303 15:0.124774 16:-0.214648 17:-0.159924 18:-0.128519 19:-0.041657 20:0.02744 21:-0.148753 22:-0.176024 
0.5256006616974843 9:1 11:0.426943 12:0.11319 13:-0.107303 14:0.124774 15:-0.214648 16:-0.159924 17:-0.128519 18:-0.041657 19:0.02744 20:-0.148753 21:-0.176024 22:-0.099356 
8.807626046361896 7:1 11:0.416907 12:0.11319 13:-0.176024 14:-0.099356 15:-0.138661 16:0.183128 17:-0.245921 18:-0.115877 19:-0.111014 20:-0.048066 21:0.039146 22:-0.216613 
4.496760955948671 10:1 11:0.415214 12:0.095184 13:0.183128 14:-0.245921 15:-0.115877 16:-0.111014 17:-0.048066 18:0.039146 19:-0.216613 20:-0.153998 21:-0.121996 22:-0.120394 
7.108555469756245 2:1 11:0.409969 12:0.095184 13:-0.115877 14:-0.111014 15:-0.048066 16:0.039146 17:-0.216613 18:-0.153998 19:-0.121996 20:-0.120394 21:0.085765 22:-0.1922 
1.144540912790642 8:1 11:0.400166 12:0.095184 13:-0.121996 14:-0.120394 15:0.085765 16:-0.1922 17:-0.173455 18:-0.16681 19:-0.10891 20:0.062399 21:-0.172519 22:-0.145224 
8.388277287843007 3:1 11:0.392791 12:0.095184 13:-0.16681 14:-0.10891 15:0.062399 16:-0.172519 17:-0.145224 18:-0.150914 19:-0.14415 20:0.098676 21:-0.162075 22:-0.193339 
10.09888858246204 4:1 11:0.390718 12:0.095184 13:-0.10891 14:0.062399 15:-0.172519 16:-0.145224 17:-0.150914 18:-0.14415 19:0.098676 20:-0.162075 21:-0.193339 22:-0.114561 
14.53076031056087 3:1 11:0.378391 12:0.095184 13:-0.114561 14:-0.103887 15:0.084327 16:-0.164394 17:-0.18645 18:-0.112332 19:-0.146307 20:0.200907 21:-0.2362 22:-0.106716 
11.2101611792524 4:1 11:0.376265 12:0.094147 13:-0.103887 14:0.084327 15:-0.164394 16:-0.18645 17:-0.112332 18:-0.146307 19:0.200907 20:-0.2362 21:-0.106716 22:-0.183229 
1.279869330141622 8:1 11:0.371537 12:0.094147 13:-0.112332 14:-0.146307 15:0.200907 16:-0.2362 17:-0.106716 18:-0.183229 19:-0.08326 20:0.093036 21:-0.184909 22:-0.153306 
12.52702437760132 9:1 11:0.370322 12:0.094147 13:-0.146307 14:0.200907 15:-0.2362 16:-0.106716 17:-0.183229 18:-0.08326 19:0.093036 20:-0.184909 21:-0.153306 22:-0.144004 
3.538446310968571 3:1 11:0.364635 12:0.094147 13:-0.183229 14:-0.08326 15:0.093036 16:-0.184909 17:-0.153306 18:-0.144004 19:-0.128656 20:0.08308 21:-0.194299 22:-0.135161 
